tree
version=v4
num_class=557
num_tree_per_iteration=557
label_index=0
max_feature_idx=805
objective=multiclass num_class:557
feature_names=Column_0 Column_1 Column_2 Column_3 Column_4 Column_5 Column_6 Column_7 Column_8 Column_9 Column_10 Column_11 Column_12 Column_13 Column_14 Column_15 Column_16 Column_17 Column_18 Column_19 Column_20 Column_21 Column_22 Column_23 Column_24 Column_25 Column_26 Column_27 Column_28 Column_29 Column_30 Column_31 Column_32 Column_33 Column_34 Column_35 Column_36 Column_37 Column_38 Column_39 Column_40 Column_41 Column_42 Column_43 Column_44 Column_45 Column_46 Column_47 Column_48 Column_49 Column_50 Column_51 Column_52 Column_53 Column_54 Column_55 Column_56 Column_57 Column_58 Column_59 Column_60 Column_61 Column_62 Column_63 Column_64 Column_65 Column_66 Column_67 Column_68 Column_69 Column_70 Column_71 Column_72 Column_73 Column_74 Column_75 Column_76 Column_77 Column_78 Column_79 Column_80 Column_81 Column_82 Column_83 Column_84 Column_85 Column_86 Column_87 Column_88 Column_89 Column_90 Column_91 Column_92 Column_93 Column_94 Column_95 Column_96 Column_97 Column_98 Column_99 Column_100 Column_101 Column_102 Column_103 Column_104 Column_105 Column_106 Column_107 Column_108 Column_109 Column_110 Column_111 Column_112 Column_113 Column_114 Column_115 Column_116 Column_117 Column_118 Column_119 Column_120 Column_121 Column_122 Column_123 Column_124 Column_125 Column_126 Column_127 Column_128 Column_129 Column_130 Column_131 Column_132 Column_133 Column_134 Column_135 Column_136 Column_137 Column_138 Column_139 Column_140 Column_141 Column_142 Column_143 Column_144 Column_145 Column_146 Column_147 Column_148 Column_149 Column_150 Column_151 Column_152 Column_153 Column_154 Column_155 Column_156 Column_157 Column_158 Column_159 Column_160 Column_161 Column_162 Column_163 Column_164 Column_165 Column_166 Column_167 Column_168 Column_169 Column_170 Column_171 Column_172 Column_173 Column_174 Column_175 Column_176 Column_177 Column_178 Column_179 Column_180 Column_181 Column_182 Column_183 Column_184 Column_185 Column_186 Column_187 Column_188 Column_189 Column_190 Column_191 Column_192 Column_193 Column_194 Column_195 Column_196 Column_197 Column_198 Column_199 Column_200 Column_201 Column_202 Column_203 Column_204 Column_205 Column_206 Column_207 Column_208 Column_209 Column_210 Column_211 Column_212 Column_213 Column_214 Column_215 Column_216 Column_217 Column_218 Column_219 Column_220 Column_221 Column_222 Column_223 Column_224 Column_225 Column_226 Column_227 Column_228 Column_229 Column_230 Column_231 Column_232 Column_233 Column_234 Column_235 Column_236 Column_237 Column_238 Column_239 Column_240 Column_241 Column_242 Column_243 Column_244 Column_245 Column_246 Column_247 Column_248 Column_249 Column_250 Column_251 Column_252 Column_253 Column_254 Column_255 Column_256 Column_257 Column_258 Column_259 Column_260 Column_261 Column_262 Column_263 Column_264 Column_265 Column_266 Column_267 Column_268 Column_269 Column_270 Column_271 Column_272 Column_273 Column_274 Column_275 Column_276 Column_277 Column_278 Column_279 Column_280 Column_281 Column_282 Column_283 Column_284 Column_285 Column_286 Column_287 Column_288 Column_289 Column_290 Column_291 Column_292 Column_293 Column_294 Column_295 Column_296 Column_297 Column_298 Column_299 Column_300 Column_301 Column_302 Column_303 Column_304 Column_305 Column_306 Column_307 Column_308 Column_309 Column_310 Column_311 Column_312 Column_313 Column_314 Column_315 Column_316 Column_317 Column_318 Column_319 Column_320 Column_321 Column_322 Column_323 Column_324 Column_325 Column_326 Column_327 Column_328 Column_329 Column_330 Column_331 Column_332 Column_333 Column_334 Column_335 Column_336 Column_337 Column_338 Column_339 Column_340 Column_341 Column_342 Column_343 Column_344 Column_345 Column_346 Column_347 Column_348 Column_349 Column_350 Column_351 Column_352 Column_353 Column_354 Column_355 Column_356 Column_357 Column_358 Column_359 Column_360 Column_361 Column_362 Column_363 Column_364 Column_365 Column_366 Column_367 Column_368 Column_369 Column_370 Column_371 Column_372 Column_373 Column_374 Column_375 Column_376 Column_377 Column_378 Column_379 Column_380 Column_381 Column_382 Column_383 Column_384 Column_385 Column_386 Column_387 Column_388 Column_389 Column_390 Column_391 Column_392 Column_393 Column_394 Column_395 Column_396 Column_397 Column_398 Column_399 Column_400 Column_401 Column_402 Column_403 Column_404 Column_405 Column_406 Column_407 Column_408 Column_409 Column_410 Column_411 Column_412 Column_413 Column_414 Column_415 Column_416 Column_417 Column_418 Column_419 Column_420 Column_421 Column_422 Column_423 Column_424 Column_425 Column_426 Column_427 Column_428 Column_429 Column_430 Column_431 Column_432 Column_433 Column_434 Column_435 Column_436 Column_437 Column_438 Column_439 Column_440 Column_441 Column_442 Column_443 Column_444 Column_445 Column_446 Column_447 Column_448 Column_449 Column_450 Column_451 Column_452 Column_453 Column_454 Column_455 Column_456 Column_457 Column_458 Column_459 Column_460 Column_461 Column_462 Column_463 Column_464 Column_465 Column_466 Column_467 Column_468 Column_469 Column_470 Column_471 Column_472 Column_473 Column_474 Column_475 Column_476 Column_477 Column_478 Column_479 Column_480 Column_481 Column_482 Column_483 Column_484 Column_485 Column_486 Column_487 Column_488 Column_489 Column_490 Column_491 Column_492 Column_493 Column_494 Column_495 Column_496 Column_497 Column_498 Column_499 Column_500 Column_501 Column_502 Column_503 Column_504 Column_505 Column_506 Column_507 Column_508 Column_509 Column_510 Column_511 Column_512 Column_513 Column_514 Column_515 Column_516 Column_517 Column_518 Column_519 Column_520 Column_521 Column_522 Column_523 Column_524 Column_525 Column_526 Column_527 Column_528 Column_529 Column_530 Column_531 Column_532 Column_533 Column_534 Column_535 Column_536 Column_537 Column_538 Column_539 Column_540 Column_541 Column_542 Column_543 Column_544 Column_545 Column_546 Column_547 Column_548 Column_549 Column_550 Column_551 Column_552 Column_553 Column_554 Column_555 Column_556 Column_557 Column_558 Column_559 Column_560 Column_561 Column_562 Column_563 Column_564 Column_565 Column_566 Column_567 Column_568 Column_569 Column_570 Column_571 Column_572 Column_573 Column_574 Column_575 Column_576 Column_577 Column_578 Column_579 Column_580 Column_581 Column_582 Column_583 Column_584 Column_585 Column_586 Column_587 Column_588 Column_589 Column_590 Column_591 Column_592 Column_593 Column_594 Column_595 Column_596 Column_597 Column_598 Column_599 Column_600 Column_601 Column_602 Column_603 Column_604 Column_605 Column_606 Column_607 Column_608 Column_609 Column_610 Column_611 Column_612 Column_613 Column_614 Column_615 Column_616 Column_617 Column_618 Column_619 Column_620 Column_621 Column_622 Column_623 Column_624 Column_625 Column_626 Column_627 Column_628 Column_629 Column_630 Column_631 Column_632 Column_633 Column_634 Column_635 Column_636 Column_637 Column_638 Column_639 Column_640 Column_641 Column_642 Column_643 Column_644 Column_645 Column_646 Column_647 Column_648 Column_649 Column_650 Column_651 Column_652 Column_653 Column_654 Column_655 Column_656 Column_657 Column_658 Column_659 Column_660 Column_661 Column_662 Column_663 Column_664 Column_665 Column_666 Column_667 Column_668 Column_669 Column_670 Column_671 Column_672 Column_673 Column_674 Column_675 Column_676 Column_677 Column_678 Column_679 Column_680 Column_681 Column_682 Column_683 Column_684 Column_685 Column_686 Column_687 Column_688 Column_689 Column_690 Column_691 Column_692 Column_693 Column_694 Column_695 Column_696 Column_697 Column_698 Column_699 Column_700 Column_701 Column_702 Column_703 Column_704 Column_705 Column_706 Column_707 Column_708 Column_709 Column_710 Column_711 Column_712 Column_713 Column_714 Column_715 Column_716 Column_717 Column_718 Column_719 Column_720 Column_721 Column_722 Column_723 Column_724 Column_725 Column_726 Column_727 Column_728 Column_729 Column_730 Column_731 Column_732 Column_733 Column_734 Column_735 Column_736 Column_737 Column_738 Column_739 Column_740 Column_741 Column_742 Column_743 Column_744 Column_745 Column_746 Column_747 Column_748 Column_749 Column_750 Column_751 Column_752 Column_753 Column_754 Column_755 Column_756 Column_757 Column_758 Column_759 Column_760 Column_761 Column_762 Column_763 Column_764 Column_765 Column_766 Column_767 Column_768 Column_769 Column_770 Column_771 Column_772 Column_773 Column_774 Column_775 Column_776 Column_777 Column_778 Column_779 Column_780 Column_781 Column_782 Column_783 Column_784 Column_785 Column_786 Column_787 Column_788 Column_789 Column_790 Column_791 Column_792 Column_793 Column_794 Column_795 Column_796 Column_797 Column_798 Column_799 Column_800 Column_801 Column_802 Column_803 Column_804 Column_805
feature_infos=[-0.39701375365257263:1.2799588441848755] [-0.96219855546951294:0.97585546970367432] [-0.61771821975708008:0.29317387938499451] [-0.58327209949493408:0.50697505474090576] [-0.74796104431152344:0.51318210363388062] [-0.77985703945159912:0.51488924026489258] [-0.2912915050983429:1.0953837633132935] [-0.58461260795593262:0.61703819036483765] [-0.34427922964096069:0.82985222339630127] [-0.87161022424697876:0.37983125448226929] [-1.0401476621627808:0.23705919086933136] [-0.64736056327819824:0.64920079708099365] [-1.2929792404174805:0.32250836491584778] [-0.36721017956733704:0.69814950227737427] [-1.3527706861495972:0.05555633082985878] [-0.2071433812379837:1.0130817890167236] [-0.56285655498504639:0.59119981527328491] [-0.69881892204284668:0.65630066394805908] [-0.52218317985534668:0.90346598625183105] [-1.2856780290603638:0.30766019225120544] [-0.69281351566314697:0.56498295068740845] [-0.21455208957195282:0.88081538677215576] [-0.6613163948059082:0.59549659490585327] [-0.83471894264221191:0.21879355609416962] [-0.61069667339324951:0.80139398574829102] [-0.94643646478652954:0.19109033048152924] [0.17746739089488983:1.3494902849197388] [-0.23170629143714905:0.96945184469223022] [-0.50013500452041626:0.69896149635314941] [-0.26416942477226257:1.0676840543746948] [-0.49812912940979004:0.70369845628738403] [-0.53235000371932983:0.73534882068634033] [-0.59030807018280029:0.98580533266067505] [-0.70456510782241821:0.77188849449157715] [-1.2679617404937744:-0.042029649019241333] [-0.22164657711982727:1.3916740417480469] [-0.4517747163772583:0.52118486166000366] [-0.75856870412826538:0.53756827116012573] [-0.49053499102592468:0.47977936267852783] [-0.41346046328544617:0.69711810350418091] [-0.81993561983108521:0.43016728758811951] [-0.42152795195579529:0.66236484050750732] [0.055870391428470612:1.3352023363113403] [-0.31337013840675354:1.43195641040802] [-0.29528623819351196:1.1001209020614624] [-1.6294529438018799:-0.13606446981430054] [-0.45700353384017944:0.77148175239562988] [-0.16151966154575348:1.0876691341400146] [-1.007907509803772:0.1233171746134758] [-1.0259681940078735:0.53392994403839111] [-0.71037936210632324:0.40961837768554688] [-0.092759668827056885:1.0919582843780518] [-0.04465441033244133:1.136073112487793] [-0.77958548069000244:0.61851257085800171] [-0.58944994211196899:0.70938527584075928] [-0.87685477733612061:0.32139107584953308] [-1.219788670539856:0.48256257176399231] [-0.8509833812713623:0.58336687088012695] [-0.39349290728569031:0.52879065275192261] [-0.43706893920898438:0.76285290718078613] [-0.7079240083694458:0.56757009029388428] [-0.9319460391998291:0.72136259078979492] [-0.51630282402038574:1.0195437669754028] [-0.58822828531265259:0.62780141830444336] [-0.97609305381774902:0.33838143944740295] [-0.74929153919219971:0.30284765362739563] [-0.6809694766998291:0.51316255331039429] [-0.1960730254650116:0.84411007165908813] [-0.44644454121589661:0.67633384466171265] [-1.4572776556015015:0.29621872305870056] [-0.76997727155685425:0.59487462043762207] [-0.76388829946517944:0.63454240560531616] [-0.53845691680908203:0.75024187564849854] [-0.53240776062011719:0.6629641056060791] [-0.23301045596599579:0.89388930797576904] [-0.47495940327644348:0.52650409936904907] [0.18886217474937439:1.148465633392334] [-0.53766238689422607:0.66348743438720703] [-0.508503258228302:0.80530554056167603] [-0.33055010437965393:0.86037009954452515] [-0.44418773055076599:0.88973593711853027] [-0.80148428678512573:0.35318627953529358] [-0.56985914707183838:0.63253879547119141] [-0.57544100284576416:0.76917058229446411] [-1.1197315454483032:0.017919927835464478] [-0.66611093282699585:0.45823454856872559] [-0.78966397047042847:0.50039666891098022] [-0.99738991260528564:0.46018457412719727] [-1.1057955026626587:0.0571303591132164] [-0.43560254573822021:0.69525361061096191] [0.027595235034823418:1.2008801698684692] [-1.1997743844985962:0.43995878100395203] [-0.88682401180267334:0.17744378745555878] [-0.7178274393081665:0.56547510623931885] [-0.4552692174911499:1.0826326608657837] [-0.41674301028251648:0.82401496171951294] [-0.41380706429481506:0.70864987373352051] [0.11446414887905121:1.3964403867721558] [0.23513230681419373:1.5306997299194336] [-0.8683198094367981:0.41656062006950378] [-0.57184785604476929:0.46910989284515381] [-0.58220940828323364:0.62407934665679932] [-0.44582211971282959:0.75785040855407715] [-0.85124355554580688:0.27511617541313171] [-0.2386246919631958:1.1176261901855469] [-0.87010997533798218:0.40129461884498596] [-0.22065398097038269:0.82026350498199463] [-1.1396805047988892:0.32887375354766846] [-0.42603453993797302:1.0316364765167236] [-0.27368474006652832:1.2137578725814819] [-0.54149377346038818:0.44517788290977478] [-0.50881832838058472:0.72625601291656494] [-0.70440107583999634:0.3800986111164093] [-0.98717182874679565:0.37147462368011475] [-0.82715332508087158:0.66788589954376221] [-0.68859118223190308:0.32181847095489502] [-0.35407024621963501:0.99824833869934082] [-0.21541261672973633:1.045779824256897] [-0.43016275763511658:1.3393824100494385] [-1.0483213663101196:0.49318268895149231] [-0.81215476989746094:0.46851304173469543] [-0.56550180912017822:0.5369831919670105] [-0.42542305588722229:0.68433982133865356] [-0.83150601387023926:0.85004335641860962] [-0.75811511278152466:0.64796161651611328] [-0.43114835023880005:0.65566796064376831] [-0.74116075038909912:0.46185398101806641] [-0.89256983995437622:0.35664647817611694] [-0.4501233696937561:0.73775225877761841] [-0.82425349950790405:0.26698631048202515] [-1.0530904531478882:0.20129232108592987] [-0.67349117994308472:0.8552367091178894] [-0.56774228811264038:0.52384328842163086] [-0.60404616594314575:0.829437255859375] [-0.40665861964225769:0.690532386302948] [-0.096872813999652863:1.1571382284164429] [-1.1951874494552612:0.18530324101448059] [-0.92577338218688965:0.51232415437698364] [-1.4723541736602783:-0.52424776554107666] [-0.59675157070159912:0.47410896420478821] [-1.2069230079650879:0.52166426181793213] [-0.63360166549682617:0.90064465999603271] [-0.58534622192382812:0.43624842166900635] [-0.7059512734413147:0.50728785991668701] [-0.52100241184234619:0.41436105966567993] [-0.51074624061584473:0.58356970548629761] [-0.91854393482208252:0.47114735841751099] [-0.70534026622772217:0.47070109844207764] [-0.51480269432067871:0.60753822326660156] [-0.86502271890640259:0.49439162015914917] [-0.45404666662216187:0.88653916120529175] [-0.8474956750869751:0.60267943143844604] [-0.5449177622795105:0.44095492362976074] [-0.44757947325706482:1.3953748941421509] [-0.78087955713272095:0.18944263458251953] [-0.55216473340988159:0.51012402772903442] [-0.68873816728591919:0.68935173749923706] [-0.51468241214752197:0.60213291645050049] [-0.50668531656265259:0.84133064746856689] [-0.85853356122970581:0.60423761606216431] [-0.42882651090621948:0.58213794231414795] [-0.40726149082183838:1.0132402181625366] [-0.60621011257171631:1.1286976337432861] [-0.37798389792442322:0.75646317005157471] [-0.79615211486816406:0.51526254415512085] [-1.1580379009246826:0.10419554263353348] [-0.45740851759910583:1.0612601041793823] [-0.78456354141235352:0.51656210422515869] [-0.59153634309768677:0.83414530754089355] [-0.36127820611000061:1.1466844081878662] [-0.8901553750038147:0.50962692499160767] [-0.38438749313354492:0.87199676036834717] [-0.93077236413955688:0.50103718042373657] [-0.20023886859416962:0.9841582179069519] [-0.49830111861228943:0.87519359588623047] [-0.97330117225646973:0.64510953426361084] [-0.41391280293464661:1.1122342348098755] [-1.1856670379638672:0.25939029455184937] [-0.73092412948608398:0.40086868405342102] [-0.44348859786987305:0.65281832218170166] [-0.52070140838623047:0.71421575546264648] [-0.61596029996871948:0.75156134366989136] [-0.39746829867362976:1.0368005037307739] [-0.94239449501037598:0.19091294705867767] [-1.2367255687713623:0.079597249627113342] [-0.742206871509552:0.60333502292633057] [-0.54482585191726685:0.69836544990539551] [-0.6127011775970459:0.47493734955787659] [-0.15213586390018463:1.0996928215026855] [-0.55260121822357178:0.74691498279571533] [-0.23765364289283752:1.1076394319534302] [-0.82608777284622192:0.28574135899543762] [-0.36312735080718994:0.91266632080078125] [-1.1071903705596924:0.21166396141052246] [-0.8062814474105835:0.46059763431549072] [-0.84994834661483765:0.48673763871192932] [-0.62389934062957764:0.49728843569755554] [-1.370113730430603:0.27483576536178589] [-0.65854817628860474:0.66017454862594604] [-1.2325891256332397:0.41149640083312988] [-0.74988031387329102:0.64562958478927612] [-0.61323654651641846:1.1851711273193359] [-1.1598275899887085:-0.1195797398686409] [-0.11475229263305664:1.0675069093704224] [-0.24613781273365021:0.86052757501602173] [-0.39834445714950562:0.70307403802871704] [-0.32511329650878906:0.7778661847114563] [-0.56535840034484863:0.68539184331893921] [-0.36458271741867065:0.56349104642868042] [-1.1031005382537842:0.50438541173934937] [-1.0778779983520508:0.35286986827850342] [-0.55033981800079346:0.76229226589202881] [-0.6753697395324707:0.6543847918510437] [-0.46552765369415283:0.73606991767883301] [-0.65116846561431885:0.39468634128570557] [-0.63238543272018433:0.45442461967468262] [-0.63614928722381592:0.85492992401123047] [-0.76113295555114746:0.55652284622192383] [-0.64053362607955933:1.0133141279220581] [-0.27719724178314209:0.86220395565032959] [-0.51120775938034058:0.55999231338500977] [-0.67243105173110962:0.67245066165924072] [-0.5694614052772522:0.81463974714279175] [-0.5917656421661377:0.5463595986366272] [-1.2198561429977417:0.26808229088783264] [-0.38221463561058044:0.63603025674819946] [-0.77918106317520142:0.8001827597618103] [-0.31425675749778748:0.91300052404403687] [-0.79926681518554688:0.62336093187332153] [-0.69360333681106567:0.32787451148033142] [-0.45209112763404846:1.1680079698562622] [-0.78157967329025269:0.47679457068443298] [-0.20611189305782318:1.154091477394104] [-0.86089068651199341:0.25472891330718994] [-0.78343552350997925:0.31913277506828308] [-0.57760751247406006:0.53211128711700439] [-0.48318272829055786:0.56949174404144287] [-0.63460874557495117:0.53095442056655884] [-0.89203774929046631:0.61811190843582153] [-0.48243480920791626:0.84983134269714355] [-1.0297973155975342:0.40856605768203735] [-0.84521323442459106:0.64225894212722778] [-0.5824514627456665:0.97834420204162598] [-0.36636301875114441:0.73639678955078125] [-1.0184226036071777:0.48574885725975037] [-0.79348093271255493:0.37320864200592041] [-0.92908614873886108:0.36349129676818848] [-0.44273439049720764:0.98345774412155151] [-0.43026790022850037:0.8279837965965271] [-0.28682208061218262:0.9786255955696106] [-0.52991384267807007:0.91139483451843262] [-0.61811792850494385:0.57811349630355835] [-0.75280636548995972:0.28641447424888611] [-0.63849169015884399:0.46083924174308777] [-0.82236713171005249:0.66448783874511719] [-0.9870600700378418:0.059909384697675705] [-0.72191715240478516:0.38407289981842041] [-0.70907551050186157:0.48394972085952759] [-1.2329809665679932:0.42218279838562012] [-0.85596638917922974:0.58104628324508667] [-0.57980775833129883:0.9674723744392395] [-0.96743994951248169:0.3851294219493866] [-0.77619242668151855:0.53120779991149902] [-0.72695749998092651:0.3735637366771698] [-0.75522845983505249:0.39215585589408875] [-0.26751556992530823:0.72715526819229126] [-0.81785529851913452:0.75164490938186646] [-0.41472744941711426:0.95981073379516602] [-0.8748326301574707:0.53121006488800049] [-0.44530290365219116:0.85877180099487305] [-0.61155873537063599:0.54461288452148438] [-1.1271966695785522:0.062365021556615829] [-0.77924251556396484:0.36318564414978027] [-0.39082139730453491:0.55489784479141235] [-0.51647937297821045:0.71876925230026245] [-0.77445822954177856:0.67855679988861084] [-0.72468394041061401:0.45883080363273621] [-0.36926418542861938:0.85870349407196045] [-0.46796679496765137:0.69407391548156738] [-1.00306236743927:0.36330103874206543] [-0.64441651105880737:0.47949618101119995] [-0.5704646110534668:1.1180285215377808] [-1.031747579574585:0.41780352592468262] [-0.73066496849060059:0.7667011022567749] [-0.50948262214660645:0.67836374044418335] [-0.21355815231800079:0.79617083072662354] [-0.1428082287311554:1.2059139013290405] [-0.36854276061058044:0.93636983633041382] [-0.49403074383735657:0.76131761074066162] [-0.34042525291442871:0.92121928930282593] [-0.45682618021965027:0.81461888551712036] [-0.73678040504455566:0.35765379667282104] [-0.84080147743225098:0.31753095984458923] [-0.44906452298164368:0.75301623344421387] [-0.58536815643310547:0.56772857904434204] [-0.24881467223167419:0.86722773313522339] [-1.0226297378540039:0.17072959244251251] [-0.3035835325717926:0.91631168127059937] [-0.59642422199249268:0.55469125509262085] [-0.22823718190193176:1.009648323059082] [-0.84548205137252808:0.64857172966003418] [-0.66458892822265625:0.67838805913925171] [-0.70015889406204224:0.48711958527565002] [-0.54189115762710571:0.79898017644882202] [-0.63024532794952393:0.86308151483535767] [-0.25137108564376831:1.4064522981643677] [-0.71797639131546021:0.65922480821609497] [-0.58567196130752563:0.85539799928665161] [-0.40564531087875366:0.99237638711929321] [-0.45740866661071777:0.76785439252853394] [-0.41514614224433899:0.99641168117523193] [-0.77574384212493896:0.47143039107322693] [-1.174988865852356:0.49992701411247253] [-0.44432568550109863:0.68338972330093384] [-1.2746012210845947:0.31859314441680908] [-1.5646902322769165:-0.0038805804215371609] [-0.71463978290557861:0.73525524139404297] [-0.53928452730178833:0.77354717254638672] [-0.24409253895282745:0.80859529972076416] [-0.67869758605957031:0.40894395112991333] [-0.49232503771781921:0.59221744537353516] [-0.33350953459739685:1.1199362277984619] [-0.78130894899368286:0.2540428638458252] [-0.83120161294937134:0.58611303567886353] [-0.54238986968994141:0.68342769145965576] [-0.42439281940460205:0.71819937229156494] [-0.479766845703125:0.68713366985321045] [-0.77372121810913086:0.20393575727939606] [-0.62301796674728394:0.66800212860107422] [-0.50847774744033813:0.76042759418487549] [-0.68883728981018066:0.80675506591796875] [-0.18789379298686981:0.76216667890548706] [-1.5621579885482788:-0.099567614495754242] [-0.94023847579956055:0.16809564828872681] [-0.52484089136123657:1.0514348745346069] [-0.67527782917022705:0.64272689819335938] [-0.87645417451858521:0.422647625207901] [-0.4758126437664032:0.8558768630027771] [-0.78651362657546997:0.54317045211791992] [-0.28050217032432556:0.86283266544342041] [-0.86705589294433594:0.39912894368171692] [-0.74618387222290039:0.44099259376525879] [-0.72938889265060425:0.65034425258636475] [-0.5387035608291626:0.60409075021743774] [-0.18023510277271271:1.2918205261230469] [-1.0220125913619995:0.40289190411567688] [-0.4234941303730011:0.70292848348617554] [-1.49062180519104:-0.10794848203659058] [-0.16301621496677399:1.5426390171051025] [-0.75350099802017212:0.59509646892547607] [-0.27037692070007324:0.91232579946517944] [-0.66282486915588379:0.63595443964004517] [-0.77892500162124634:0.65237462520599365] [-0.37628895044326782:0.88507390022277832] [-0.31048282980918884:1.0226982831954956] [-1.1820725202560425:0.25851622223854065] [-0.24002054333686829:0.63306176662445068] [-0.64874911308288574:0.77524042129516602] [-0.36527529358863831:1.0015829801559448] [-0.57002043724060059:0.65181857347488403] [-0.85960173606872559:0.51538276672363281] [-0.58277785778045654:0.47026878595352173] [-0.22021426260471344:1.1701960563659668] [-0.35911262035369873:0.88953214883804321] [-0.87941634654998779:0.30643722414970398] [-0.59865659475326538:0.74101012945175171] [-0.39612102508544922:0.86046648025512695] [-0.85570049285888672:0.24618335068225861] [-0.78675329685211182:0.37791773676872253] [-0.91173809766769409:0.52689802646636963] [-0.50437742471694946:0.94719815254211426] [-0.65340197086334229:0.37207230925559998] [-0.16682726144790649:1.313241720199585] [-0.65251463651657104:0.48092061281204224] [-0.74939179420471191:0.47668555378913879] [-0.22688336670398712:1.26133131980896] [-0.89687108993530273:0.43709436058998108] [-0.53946053981781006:0.53259795904159546] [-0.46004337072372437:0.6940842866897583] [-0.86266350746154785:0.23690909147262573] [-0.87218987941741943:0.28477415442466736] [-0.61520195007324219:0.5198628306388855] [-0.67110574245452881:0.82559788227081299] [-0.596638023853302:0.35251635313034058] [-0.59619218111038208:0.5647512674331665] [-0.30849814414978027:0.87281244993209839] [-0.34957364201545715:0.71638810634613037] [-0.64314031600952148:0.67173385620117188] [-0.45586863160133362:0.66039526462554932] [-0.81043624877929688:0.38617059588432312] [-0.80111849308013916:0.40789610147476196] [-0.65184187889099121:0.68905651569366455] [-0.4471379816532135:0.81601035594940186] [-0.86712586879730225:0.48691532015800476] [-0.92049193382263184:0.47408530116081238] [-0.35663530230522156:0.81482577323913574] [-0.44646123051643372:0.64180713891983032] [-0.5279424786567688:0.74475282430648804] [-0.58223378658294678:0.74067634344100952] [-0.92054849863052368:0.45377722382545471] [-1.229081392288208:0.45783212780952454] [-0.26338890194892883:1.0759032964706421] [-1.1245436668395996:0.26930248737335205] [-0.35993918776512146:0.73728018999099731] [-0.25489670038223267:0.62271130084991455] [-0.56713575124740601:0.585124671459198] [-0.97703742980957031:0.36831653118133545] [-0.78307467699050903:0.21444649994373322] [-0.81135588884353638:0.26319131255149841] [-0.60061204433441162:0.43939799070358276] [-0.96129316091537476:0.22078733146190643] [-1.0260978937149048:0.32685205340385437] [-0.63905978202819824:0.53764551877975464] [-0.74778378009796143:0.82017523050308228] [-0.72878545522689819:0.46233797073364258] [-0.75287187099456787:0.4809030294418335] [-0.73040807247161865:0.97769421339035034] [-0.1390419602394104:2.1044275760650635] [-0.55423760414123535:0.68195050954818726] [-0.92825639247894287:0.56000751256942749] [-0.28918668627738953:0.75660979747772217] [-0.85084158182144165:0.4612882137298584] [-0.5569414496421814:0.77929812669754028] [-0.89030134677886963:0.47187113761901855] [-0.38850802183151245:0.95219236612319946] [-0.60714668035507202:0.50835108757019043] [-0.76099210977554321:0.56330180168151855] [-0.65368294715881348:0.62127482891082764] [-0.52010160684585571:0.48657107353210449] [-0.49452406167984009:0.80601727962493896] [-0.98722392320632935:0.26866057515144348] [-0.27070331573486328:1.1525528430938721] [-0.20088063180446625:1.0537959337234497] [-0.59072381258010864:0.87149703502655029] [-0.44217514991760254:0.64120680093765259] [-0.47311443090438843:0.88458347320556641] [-0.45516577363014221:0.87854379415512085] [-0.792519211769104:0.33549052476882935] [-0.30801364779472351:0.73446309566497803] [-0.47043421864509583:0.85903245210647583] [-0.80378252267837524:0.78862804174423218] [-0.53249937295913696:0.61505860090255737] [-0.8893592357635498:0.34065991640090942] [-0.79898124933242798:0.62982243299484253] [-0.70803290605545044:0.41550517082214355] [-0.62494981288909912:0.57124596834182739] [-0.41132023930549622:0.83258306980133057] [-0.51513534784317017:0.88058763742446899] [-0.40158852934837341:1.050044059753418] [-0.37944918870925903:0.65995341539382935] [-0.76092702150344849:0.42776012420654297] [-0.33435958623886108:1.0939298868179321] [-0.57732796669006348:0.54939460754394531] [-0.58034974336624146:0.45159000158309937] [-0.18527485430240631:1.2035650014877319] [-0.59799182415008545:0.72399652004241943] [-0.54732400178909302:0.5842444896697998] [-0.71013224124908447:0.34857672452926636] [-0.96979653835296631:0.53035444021224976] [-0.51277977228164673:0.72845876216888428] [-0.51241225004196167:0.55749493837356567] [-0.67916578054428101:0.5127837061882019] [-1.2639297246932983:0.2479914128780365] [-0.30597078800201416:1.2190722227096558] [-0.82182455062866211:0.78809636831283569] [-0.77447891235351562:0.36197257041931152] [-0.48845595121383667:0.55038571357727051] [-0.18068578839302063:1.0781489610671997] [-1.2083492279052734:0.19786664843559265] [-0.6933409571647644:1.0519298315048218] [-0.1851591020822525:0.88477349281311035] [-0.79815971851348877:0.55648386478424072] [0.070468947291374207:1.224254846572876] [-0.63871848583221436:0.73529273271560669] [-0.98433715105056763:0.40530672669410706] [-0.7566835880279541:0.5850638747215271] [-0.51243233680725098:0.70976155996322632] [-0.72311794757843018:0.47915837168693542] [-0.37524768710136414:1.034276008605957] [-0.27434352040290833:0.80037975311279297] [-0.26616036891937256:0.97096502780914307] [-0.42312967777252197:0.70650702714920044] [-0.78916239738464355:0.35643011331558228] [-0.12176660448312759:1.3251514434814453] [-0.72002130746841431:0.59805387258529663] [-0.48283863067626953:0.84291446208953857] [-0.28542786836624146:1.093620777130127] [-0.76578801870346069:0.42230692505836487] [-0.15456508100032806:1.0315275192260742] [-0.83449101448059082:0.308399498462677] [-0.6122359037399292:0.74268418550491333] [-0.35121998190879822:0.75463986396789551] [-1.283568263053894:0.061482708901166916] [-0.48376137018203735:0.99504554271697998] [-0.40232247114181519:0.81814396381378174] [-0.46025046706199646:0.72203445434570312] [-0.58947288990020752:0.49328562617301941] [-0.86965107917785645:0.26247143745422363] [-0.51090562343597412:1.0044782161712646] [-0.92532944679260254:0.68474239110946655] [-0.69159036874771118:0.3562207818031311] [-0.59057891368865967:0.65839689970016479] [-0.85771650075912476:0.40411430597305298] [-0.36928072571754456:0.7226288914680481] [-1.5115902423858643:0.34367504715919495] [-0.59808987379074097:0.92135196924209595] [-0.34591773152351379:0.87322986125946045] [-0.30771017074584961:1.2316743135452271] [-0.13066542148590088:1.0041748285293579] [-0.87252044677734375:0.66604059934616089] [-0.49492517113685608:0.80228537321090698] [-1.525951623916626:0.0047580385580658913] [-0.42366039752960205:0.70466834306716919] [-0.17778037488460541:0.86018121242523193] [-0.79535335302352905:0.39800611138343811] [-0.75201267004013062:0.49216157197952271] [-0.94457751512527466:0.20001819729804993] [-0.16922728717327118:1.2789421081542969] [-0.13833583891391754:1.0429592132568359] [-0.63302302360534668:0.74676424264907837] [-0.29881751537322998:1.0185538530349731] [-1.0364962816238403:0.304533451795578] [-0.87906867265701294:0.52928882837295532] [-0.35873690247535706:0.85563015937805176] [-0.33782339096069336:0.68270081281661987] [-1.2452930212020874:0.29153549671173096] [-0.81258267164230347:0.45638015866279602] [-0.78998547792434692:0.45731499791145325] [-0.48041513562202454:0.70506775379180908] [-0.85745608806610107:0.21185797452926636] [-0.63862186670303345:0.65781086683273315] [-0.40977177023887634:0.6972278356552124] [-1.0912767648696899:0.59779101610183716] [-1.0365431308746338:0.54214513301849365] [-0.93833649158477783:0.38995063304901123] [-0.74218446016311646:0.85248750448226929] [-0.67110806703567505:0.66634887456893921] [-0.89409017562866211:0.14301738142967224] [-0.52081906795501709:0.83132117986679077] [-0.61559808254241943:0.85501313209533691] [-0.38112214207649231:0.6055753231048584] [-0.69282388687133789:0.44502481818199158] [-0.48944699764251709:0.74121993780136108] [-1.0886682271957397:0.24965545535087585] [-0.95236283540725708:0.43680164217948914] [-0.62309855222702026:0.81337189674377441] [-0.32660242915153503:0.54116213321685791] [-0.66564196348190308:0.75397616624832153] [-0.48604479432106018:0.72658735513687134] [-0.013871588744223118:1.3392790555953979] [-0.27119779586791992:1.4790138006210327] [-0.28812503814697266:0.60086804628372192] [-1.0849124193191528:0.18402887880802155] [-1.1351836919784546:0.62608975172042847] [-0.59500247240066528:0.62021404504776001] [-0.48231112957000732:0.76979213953018188] [-0.92297536134719849:0.31596192717552185] [-11.126540184020996:-9.6898612976074219] [-1.041283130645752:0.44067999720573425] [-0.76813995838165283:0.37574511766433716] [-0.31012919545173645:0.74774497747421265] [-0.79980611801147461:0.55065667629241943] [-0.21322630345821381:0.80849301815032959] [0.34398853778839111:1.6369258165359497] [-0.7497982382774353:0.59585130214691162] [-0.78770124912261963:0.54765927791595459] [-0.36252191662788391:0.70796895027160645] [-0.93626874685287476:0.077103637158870697] [-0.82112449407577515:0.2275516539812088] [-0.57632678747177124:0.64524054527282715] [-0.30606356263160706:0.8415408730506897] [-0.70273393392562866:0.31091108918190002] [-0.85486620664596558:0.47052031755447388] [-0.79846101999282837:0.53952068090438843] [-0.28819519281387329:0.69651466608047485] [-0.51138013601303101:0.75694191455841064] [-0.62050765752792358:0.66959351301193237] [-0.60428345203399658:0.78399831056594849] [-0.65553367137908936:1.1593073606491089] [-0.53565883636474609:0.91344881057739258] [-0.9941171407699585:0.65160065889358521] [-0.66791963577270508:0.56006813049316406] [-1.0674923658370972:0.3851318359375] [-0.82800096273422241:0.44425219297409058] [-0.47552540898323059:0.71937751770019531] [-0.69484597444534302:0.73080116510391235] [-1.067293643951416:0.059905841946601868] [-0.44522532820701599:0.6821742057800293] [-0.40910068154335022:0.73473352193832397] [-0.82815408706665039:0.57872533798217773] [-0.81625533103942871:0.71623122692108154] [-0.29226243495941162:0.75902128219604492] [-0.64583325386047363:0.87655925750732422] [-0.35744982957839966:0.77022337913513184] [-0.52449828386306763:0.96358078718185425] [-0.42137932777404785:1.1432973146438599] [-0.95236712694168091:0.20010195672512054] [-0.52742534875869751:0.78960645198822021] [-0.69450300931930542:0.72157049179077148] [-0.48825410008430481:0.86668336391448975] [-0.2798747718334198:1.1291875839233398] [-0.43610253930091858:0.74118608236312866] [-1.1191525459289551:0.17593726515769958] [-0.7769770622253418:0.50607728958129883] [-1.9277951717376709:-0.47729760408401489] [-0.31951779127120972:0.83438444137573242] [-0.80030477046966553:0.82958555221557617] [-0.45502641797065735:1.0398571491241455] [-0.55760246515274048:0.57751089334487915] [-0.41379988193511963:0.86519008874893188] [-0.68485438823699951:0.44027867913246155] [-1.4569454193115234:0.10712824761867523] [-0.36957550048828125:1.0366619825363159] [-0.82680797576904297:0.52931010723114014] [-0.71361136436462402:0.66111767292022705] [-0.64270323514938354:0.56372296810150146] [-0.81562870740890503:0.45773929357528687] [-0.456501305103302:0.68365556001663208] [-0.77466708421707153:0.51270818710327148] [-0.10908390581607819:1.0735576152801514] [-0.72095060348510742:0.55111521482467651] [-0.59031403064727783:0.32433566451072693] [-0.28724130988121033:0.87770074605941772] [-0.70145457983016968:0.39547020196914673] [-0.47204270958900452:0.7200126051902771] [-0.8528435230255127:0.49971580505371094] [-0.97304266691207886:0.37904107570648193] [-0.75401008129119873:0.43672597408294678] [-0.6099250316619873:0.5505489706993103] [-1.0668362379074097:0.46882805228233337] [-0.74331760406494141:0.73716390132904053] [-0.30237463116645813:0.99972635507583618] [-0.75583505630493164:0.57097148895263672] [-0.89139062166213989:0.46497613191604614] [-0.07649705559015274:1.8683966398239136] [-0.48131939768791199:0.83886057138442993] [-0.40235415101051331:0.85659635066986084] [-0.59910649061203003:0.92527717351913452] [-0.56464087963104248:0.52078229188919067] [-0.51219475269317627:0.69560343027114868] [-0.51509964466094971:0.7429085373878479] [-0.59769183397293091:0.61827534437179565] [-0.58512556552886963:0.66825872659683228] [-0.66494834423065186:0.90788877010345459] [-0.40026894211769104:0.73449993133544922] [-0.71641874313354492:0.61479514837265015] [-0.82354897260665894:0.70647698640823364] [-0.69952476024627686:0.52665883302688599] [-0.38444313406944275:1.0981576442718506] [-0.60520225763320923:0.51647931337356567] [-1.0023114681243896:0.1574469655752182] [-0.74549299478530884:0.31889519095420837] [-0.83392751216888428:0.28553774952888489] [-0.741252601146698:0.59975117444992065] [-0.69914299249649048:0.58070117235183716] [-0.56521749496459961:0.52138054370880127] [-0.90508890151977539:0.41642081737518311] [-0.94019609689712524:0.17768307030200958] [-0.44901704788208008:0.79874122142791748] [-0.4588904082775116:0.66329139471054077] [-1.0642364025115967:0.22018708288669586] [-0.95997309684753418:0.4124225378036499] [-0.087201133370399475:1.0397986173629761] [-0.2802736759185791:0.73115277290344238] [-0.32699379324913025:0.99645793437957764] [-0.77009904384613037:0.44870945811271667] [-0.46588438749313354:0.6789279580116272] [-0.99074327945709229:0.69744968414306641] [-0.70257079601287842:0.27555108070373535] [-0.83714723587036133:0.71036195755004883] [-0.31401646137237549:1.4297443628311157] [-0.30868661403656006:0.7814176082611084] [-0.76990318298339844:0.45961439609527588] [-0.74839824438095093:0.60506922006607056] [-1.2304654121398926:0.59115314483642578] [-0.99597311019897461:0.38659238815307617] [-0.82803070545196533:0.38864287734031677] [-0.0580889992415905:0.98009073734283447] [-0.92042011022567749:0.58968645334243774] [-0.61378854513168335:0.80805051326751709] [-0.46897992491722107:0.84903210401535034] [-0.28119486570358276:1.0466752052307129] [-0.62535297870635986:0.3336731493473053] [0.45695865154266357:1.7505756616592407] [-0.73781925439834595:0.20440083742141724] [-0.40521860122680664:0.87783139944076538] [-0.86931490898132324:0.43440097570419312] [-0.46087619662284851:0.66766351461410522] [-0.8232380747795105:0.580375075340271] [-0.61875337362289429:0.67032712697982788] [-0.44570013880729675:0.90033966302871704] [-0.14897789061069489:1.1192399263381958] [-0.80172145366668701:0.58353596925735474] [-0.30221313238143921:1.29050612449646] [-0.82822465896606445:0.4690437912940979] [-1.191719651222229:0.11202257126569748] [-0.94353652000427246:0.39110565185546875] [-0.57943779230117798:0.50390833616256714] [-0.13260920345783234:1.2161235809326172] [-0.48355212807655334:0.99818521738052368] [-0.25392994284629822:1.1033546924591064] [-0.54666167497634888:0.6624646782875061] [-0.59626191854476929:0.49260601401329041] [-0.6268652081489563:0.52393364906311035] [-1.0143663883209229:0.29577779769897461] [-1.1143404245376587:0.23164410889148712] [-0.77145296335220337:0.42133218050003052] [-1.313268780708313:0.16448919475078583] [-0.4804215133190155:0.68407875299453735] [-1.135577917098999:0.46199068427085876] [-1.5037022829055786:0.072368472814559937] [-0.39649766683578491:0.92067795991897583] [-0.75932282209396362:0.453632652759552] [-0.47893920540809631:0.63734924793243408] [-0.79329508543014526:0.38242596387863159] [-0.99629306793212891:0.17654891312122345] [-0.1232592985033989:1.0422842502593994] [-0.31748759746551514:0.92311215400695801] [-0.21194711327552795:1.2483594417572021] [-0.71536499261856079:0.84430646896362305] [-0.31535342335700989:0.90656834840774536] [-0.68086254596710205:0.86868381500244141] [-0.8308790922164917:0.48498481512069702] [-0.62311917543411255:0.38531953096389771] [-0.63614052534103394:0.76034486293792725] [-0.56824666261672974:0.65860128402709961] [-0.41847360134124756:0.96263504028320312] [-1.2490156888961792:-0.055578023195266724] [-0.45559528470039368:0.57066762447357178] [-0.34620192646980286:0.9529259204864502] [-1.0525094270706177:0.25052574276924133] [-0.8305889368057251:0.43544122576713562] [-0.98820525407791138:0.37646451592445374] [-0.53677153587341309:0.88634026050567627] [-0.62417453527450562:0.58748477697372437] [-1.0484130382537842:0.25999519228935242] [-0.68924963474273682:0.47703632712364197] [-0.42882511019706726:0.77619701623916626] [-0.75976699590682983:0.39114606380462646] [-0.74251532554626465:0.35705730319023132] [-0.73238646984100342:0.73382949829101562] [-0.78725367784500122:0.84933626651763916] [-0.34783333539962769:0.9271274209022522] [-0.24104286730289459:1.0002027750015259] [-0.69768017530441284:0.50455999374389648] [-0.57055068016052246:0.41764330863952637] [-0.83434194326400757:0.57241111993789673] [-0.8211289644241333:0.62753605842590332] [-0.50983422994613647:0.62426906824111938] [-0.63825494050979614:0.56411260366439819] [-0.94431149959564209:0.67044466733932495] [-0.42205443978309631:0.95507967472076416] [-0.4648665189743042:0.81957018375396729] [-0.6692081093788147:0.49166181683540344] [-0.96785891056060791:0.4300369918346405] [-0.93783587217330933:0.41378962993621826] [-0.72464197874069214:0.75532835721969604] [-0.55499482154846191:0.42567786574363708] [-0.58848720788955688:0.50266045331954956] [-0.18683886528015137:1.2046167850494385] [-1.150040864944458:0.40593147277832031] [-0.68720459938049316:0.4387677013874054] [-0.73909693956375122:0.5237962007522583] [-0.53512793779373169:0.63801252841949463] [-0.41524520516395569:0.65774887800216675] [-0.73899012804031372:0.64594370126724243] [-0.33990409970283508:0.88931083679199219] [-0.88817965984344482:0.35793179273605347] [18:103.09999847412109] [0:1] [6.7199997901916504:199.52000427246094] [1:44] [1:12] [0:4] [0:18] [15:1870] [1:5] [0:1] [0:1] [0:1] [0:1] [0:1] [0:1] [0:1] [0:1] [0:1] [0:1] [0:1] [0:1] [0:1] [0:1] [0:1] [0:1] [0:1] [0:1] none none [0:1] [0:1] [0:1] [0:1] [0:1] [0:1] [0:1] [0:1] [0:1]
tree_sizes=3459 3411 3420 3425 3436 2266 3469 3416 3429 3023 3277 2819 3244 3458 3397 3434 3425 2839 3430 3433 3418 3380 2725 3496 3400 2929 1654 3408 3415 3471 3359 3387 3463 3391 3410 3498 3430 3464 3456 3444 3438 3441 3445 3023 3181 3479 3238 3431 3428 3496 3405 2582 3452 3395 3388 3421 3377 3407 3437 3364 3355 3471 3283 3421 3403 3391 3406 3417 3404 3383 3368 3385 3400 3431 3455 2914 3350 3477 3391 3151 2743 3495 3449 3437 3456 2617 3425 3330 3461 3382 3427 3416 3432 3449 3424 3435 3413 3416 3447 3445 2739 3439 2301 3482 3439 3440 3464 3430 3456 3455 3361 3419 3414 3405 3397 3462 3411 2855 3440 3406 2187 3410 2597 3190 3406 1775 3394 3397 3415 2455 3411 3433 3444 3433 3419 2695 3462 1791 1631 3481 3368 3425 3468 3466 3397 3387 3150 2947 2200 1984 1980 3150 1738 1421 2075 3341 3360 3455 3386 3371 3423 3398 3433 3415 2719 3466 3400 1406 3473 2255 2064 2815 3439 3355 1958 3427 3221 3430 3416 3412 3409 3466 3401 3395 3422 3406 3435 2607 2672 2303 3377 3433 3486 3441 3351 2814 3480 3474 3424 3450 2848 2611 2148 1626 1534 2837 2390 3441 3441 3430 3424 3381 3455 3438 2792 3386 3418 3439 3450 3455 3147 3485 2521 3418 3442 3416 3414 3361 3442 2807 2620 1858 2192 2816 3069 2089 3439 3486 3427 3471 3481 3491 2925 2200 2423 2387 3405 3422 3373 3444 3364 3428 3357 3439 3444 3378 3399 3479 3502 3472 3473 3452 3487 3428 3465 2844 3384 3458 3422 3471 3453 3462 1642 1310 3056 3441 3406 3376 3400 3429 3432 3474 3391 3434 3443 3470 3445 2202 3044 2163 3442 3431 3490 3445 3439 3431 3451 3400 3370 3397 3440 3396 3437 3343 3362 3403 3389 3383 2102 3425 3410 3440 3406 3385 3398 3422 3428 3420 3378 3424 3434 3024 3452 3446 3428 3386 3400 3249 3417 3401 3402 3434 3445 3430 3408 3424 3459 2327 3229 3433 2807 3451 3406 3494 3474 2142 3429 3489 2597 2805 3395 3398 3419 3449 3381 3422 3359 3438 3446 3357 3405 2817 3423 1977 1443 1559 3488 1971 2726 2466 3481 3405 3483 3431 3438 3433 3459 3416 3420 1315 3426 3419 3434 3465 2403 2513 3466 3515 3447 3471 3137 3473 1962 3399 3470 3461 3471 3431 3456 3441 3428 3435 3403 3387 3157 3425 2715 3361 3449 3421 3416 3427 3409 3441 3425 3407 3398 3390 3433 3420 3456 3404 3445 3365 3395 3425 3438 3375 3436 3382 3420 3421 3359 3482 3416 3403 3414 1328 1319 1334 2817 783 3466 1102 3411 3430 2299 3489 3432 3042 3373 2682 2269 2629 2394 3460 3429 3436 2207 3456 1665 3491 3433 3470 2527 3426 3429 3429 2290 983 3455 1987 3518 1840 2934 2496 1642 1314 3179 1321 2298 1975 3417 3394 3404 3334 3363 3458 3444 3433 3420 3460 3448 3436 3425 3438 3456 3453 3418 3440 3436 3478 3455 2590 3417 3456 2357 3445 3472 3431 3416 3437 3439 3437 3412 3457 3438 3447 3410 3395 3403 3454 3441 3401 3453 3479 3410 3430 3441 3401 3470 2395 3357 3441 1667 2921 3387 3416 3408 2848 3430 3394 3391 3459 3447 3398 2625 3389 3435 3428 3378 3465 3374 1627 3454 3414 3455

Tree=0
num_leaves=31
num_cat=0
split_feature=58 768 545 517 754 768 773 775 778 265 25 210 768 56 774 768 772 768 288 774 579 768 754 768 536 39 506 176 92 606
split_gain=2009.88 3939.47 977.074 738.525 988.135 399.818 472.177 279.745 379.864 172.808 172.409 914.743 171.327 43.4283 68.8261 68.5034 81.2595 38.4499 33.7937 34.0134 27.3986 38.2539 8.15622 59.7308 5.5375 62.3892 5.19945 62.7669 1.78102 15.3484
threshold=-0.2736095786094665 28.349999427795414 0.58607754111289989 1.0000000180025095e-35 0.14831218868494037 51.750000000000007 1.0000000180025095e-35 89.500000000000014 1.0000000180025095e-35 -0.22688876092433927 0.061876848340034492 -0.34901894629001612 44.95000076293946 -0.61877718567848194 11.500000000000002 59.149999618530281 7.5000000000000009 44.149999618530281 0.70532727241516124 11.500000000000002 0.77467817068099987 59.149999618530281 0.28622217476367956 49.350000381469734 -0.51857700943946827 0.020016839727759365 -0.15269712358713147 0.32496958971023565 -0.68749499320983876 -0.46024656295776362
decision_type=2 2 2 2 2 2 2 2 2 2 2 2 2 2 2 2 2 2 2 2 2 2 2 2 2 2 2 2 2 2
left_child=1 -1 3 4 17 6 -3 8 12 -5 18 -12 -8 14 -7 -16 -17 -2 20 -20 22 -22 24 -24 25 -11 27 -26 29 -28
right_child=2 5 -4 9 -6 13 7 -9 -10 10 11 -13 -14 -15 15 16 -18 -19 19 -21 21 -23 23 -25 26 -27 28 -29 -30 -31
leaf_value=40.041182093073026 -0.91960085271968239 12.35118979872022 11.900823600142591 0.96198988330613044 26.291095945189774 -7.7222750521976202 -7.7222750521976193 -7.7222750521976211 14.953305612727569 -0.91960085271644232 -7.722275052197622 19.488421745714138 5.8830733467573397 -7.722275052197622 -7.7222750521976167 -3.5573724810888487 5.8830733467573397 -7.7222750521976176 -0.91960085271968239 -7.7222750521976158 -7.7222750521976229 -1.1390419559290752 -0.91960085271968239 -7.722275052197622 -0.91960085271644232 -7.722275052197622 -6.0073151699763212 -7.722275052197622 -7.7222750521976229 -7.7222750521976256
leaf_weight=0.023030158947220936 0.014700101455672576 0.029890206293202937 0.025480175856499865 0.023030158947220936 0.014700101455673575 0.039690273930318654 0.024990172474645078 0.04606031789444387 0.01764012174680829 0.014700101455665471 0.077420534333214164 0.014700101455672576 0.014700101455673575 0.079380547860637307 0.016170111601240933 0.024010165710933506 0.014700101455673575 0.019110131892375648 0.014700101455672576 0.014700101455673575 0.021070145419797792 0.015190104837529361 0.014700101455672576 0.10584073048084974 0.014700101455665471 0.1626811227761209 0.058310402440838516 0.17542121070437133 48.89841748215261 0.49686342920175164
leaf_count=47 30 61 52 47 30 81 51 94 36 30 158 30 30 162 33 49 30 39 30 30 43 31 30 216 30 332 119 358 99792 1014
internal_value=-7.6253 0.150256 -7.67646 -7.6864 4.64622 -2.83997 1.28126 -1.91905 2.74338 -7.69833 -7.70231 -3.38014 -2.68326 -5.99765 -4.55004 -2.25584 0.0276069 -4.76459 -7.71028 -4.32094 -7.71227 -4.96443 -7.71427 -6.89268 -7.71625 -7.15852 -7.71825 -7.1963 -7.72025 -7.54215
internal_weight=50.5267 0.330262 50.1964 50.171 0.0485103 0.307232 0.133281 0.103391 0.0573304 50.1224 50.0994 0.0921206 0.0396903 0.173951 0.0945707 0.0548804 0.0387103 0.0338102 50.0073 0.0294002 49.9779 0.0362603 49.9416 0.120541 49.8211 0.177381 49.6437 0.190121 49.4536 0.555174
internal_count=103115 674 102441 102389 99 627 272 211 117 102290 102243 188 81 355 193 112 79 69 102055 60 101995 74 101921 246 101675 362 101313 388 100925 1133
is_linear=0
shrinkage=1


Tree=1
num_leaves=31
num_cat=0
split_feature=360 29 639 6 769 772 774 773 770 772 772 772 551 249 225 716 22 783 718 598 770 767 774 339 770 207 770 696 773 768
split_gain=8191.94 3646.27 1228.44 2566.13 1069.32 937.721 682.879 557.851 629.992 911.37 747.789 272.217 126.093 229.943 110.153 307.253 95.8704 62.7727 298.974 232.894 179.291 94.6051 80.4995 264.5 54.6412 47.8316 63.1728 46.2426 81.1629 40.7441
threshold=0.249584935605526 0.092100657522678389 0.50453558564186107 0.21924425661563876 1.0000000180025095e-35 4.5000000000000009 14.500000000000002 3.5000000000000004 29.314999580383304 9.5000000000000018 3.5000000000000004 6.5000000000000009 0.56740230321884166 0.1032041795551777 0.52176737785339367 0.30146180093288427 -0.26538838446140284 1.0000000180025095e-35 0.91477119922637951 -0.35362684726715082 26.954999923706058 -0.36467371881008143 8.5000000000000018 0.10376327112317087 23.394999504089359 0.28750587999820715 24.265000343322757 -0.61235854029655445 2.5000000000000004 66.250000000000014
decision_type=2 2 2 2 2 2 2 2 2 2 2 2 2 2 2 2 2 2 2 2 2 2 2 2 2 2 2 2 2 2
left_child=2 4 12 5 11 -4 7 8 9 10 -6 -2 14 -14 17 -16 -12 -1 19 -19 -20 22 23 -21 -25 27 -27 28 -23 -15
right_child=1 -3 3 -5 6 -7 -8 -9 -10 -11 16 -13 13 29 15 -17 -18 18 20 21 -22 25 -24 24 -26 26 -28 -29 -30 -31
leaf_value=-6.8005182118185648 -5.0344030595375742 -6.8005182118185648 25.696000590151673 -6.8005182118185648 17.571870889658719 5.2992494272126986 -1.7229371490108418 2.6461442306144676 24.793319512318455 21.705200035523344 8.4322249766045996 4.5732633688708351 1.7511972623841281 -6.8005182118185639 -6.8005182118185648 3.6822297888167235 2.5734775964419843 1.3236114886739934 -6.8005182118185603 3.6822297888174784 1.6037538921391388 -6.8005182118185683 -6.1881466263543023 -2.8375281140173931 -6.8005182118185639 -1.3844317448237815 -6.0551852117733809 -6.7611761793706586 -2.4483058722690414 -3.8990433187855484
leaf_weight=114.10330173559487 0.056621450930832817 0.22894760593771935 0.036927033215760185 0.19571327604353428 0.061545055359601974 0.057852352038025856 0.039388835430145264 0.052928747609257698 0.044312439858913422 0.070161363109946251 0.039388835430145264 0.061545055359601974 0.046774242073296501 0.16247894614934921 0.10462659411132236 0.038157934322953224 0.09601028636097908 0.036927033215760185 0.039388835430146041 0.038157934322950449 0.07139226421713829 0.11324290186166308 0.48989864066243172 0.050466945394873619 0.11201200075447559 0.036927033215761962 0.1341682206839323 10.167243145406246 0.068930462002754211 0.068930462002754211
leaf_count=92699 46 186 30 159 50 47 32 43 36 57 32 50 38 132 85 31 78 30 32 31 58 92 398 41 91 30 109 8260 56 56
internal_value=-6.69337 3.7209 -6.75534 -0.259905 8.33642 13.246 10.7853 12.1375 13.7506 11.9187 8.43222 -0.0304101 -6.77033 -4.64367 -6.77504 -3.99909 4.27784 -6.7782 -6.55401 -6.60493 -1.38443 -6.63104 -5.49718 -3.81004 -5.56959 -6.70547 -5.04711 -6.73288 -5.15374 -5.93625
internal_weight=126.924 0.75085 126.174 0.290493 0.521902 0.0947794 0.403736 0.364347 0.311418 0.267106 0.196944 0.118167 125.883 0.278184 125.605 0.142785 0.135399 125.462 11.3588 11.248 0.110781 11.211 0.690536 0.200637 0.162479 10.5205 0.171095 10.3494 0.182173 0.231409
internal_count=103115 610 102505 236 424 77 328 296 253 217 160 96 102269 226 102043 116 110 101927 9228 9138 90 9108 561 163 132 8547 139 8408 148 188
is_linear=0
shrinkage=1


Tree=2
num_leaves=31
num_cat=0
split_feature=225 556 406 770 771 199 775 770 589 770 775 19 149 775 775 773 773 76 208 232 776 771 33 769 1 273 773 770 774 360
split_gain=5204.88 2538.07 15487.4 1646.67 1100.06 720.454 1543.58 1462.53 433.971 433.674 272.248 238.596 135.224 583.3 238.199 96.3117 73.7897 124.947 71.6415 135.949 57.2307 57.3062 51.7398 35.6127 46.0252 23.5669 47.565 18.1198 16.5416 9.79443
threshold=0.52176737785339367 -0.76621091365814198 -0.10984984040260314 25.835000038146976 16.500000000000004 -0.82703721523284901 356.00000000000006 27.045000076293949 -0.82083627581596363 27.125000000000004 577.50000000000011 -0.75898736715316761 -0.72878038883209217 102.50000000000001 89.500000000000014 1.5000000000000002 1.0000000180025095e-35 0.76024949550628673 0.47985699772834783 0.90771102905273449 3.5000000000000004 14.500000000000002 0.48661920428276068 1.0000000180025095e-35 0.28974643349647528 0.52631109952926647 1.5000000000000002 30.855000495910648 13.500000000000002 0.249584935605526
decision_type=2 2 2 2 2 2 2 2 2 2 2 2 2 2 2 2 2 2 2 2 2 2 2 2 2 2 2 2 2 2
left_child=1 2 -1 -4 11 6 -3 15 10 -5 16 -2 13 14 22 -8 17 -7 25 27 21 23 -10 24 -18 29 -27 -20 -26 -14
right_child=4 5 3 9 -6 8 7 -9 12 -11 -12 -13 18 -15 -16 -17 20 -19 19 -21 -22 -23 -24 -25 28 26 -28 -29 -30 -31
leaf_value=-6.6191423839180574 -0.80942083795824882 -6.6191423839180574 39.178212145045265 11.699799427666939 19.96128298975442 -0.22479477044015983 -3.3915193028292645 20.492891497227617 -4.5652004232251571 23.360510465426007 1.3549852281836872 9.1962107134172761 -6.6164228860614802 -6.6191423839180574 6.499583687604054 2.0336343866604212 -3.1726973990266192 -6.6191423839180556 -6.6191423839180574 -1.5036642931358033 -2.7825338158313668 -2.2462336934106855 0.15886608636836375 -6.6191423839180574 -6.6191423839180565 -3.0517695048198621 -6.6191423839180565 -4.4326880386643701 -4.3598062271559161 -6.2852503410467984
leaf_weight=1.1035690275020895 0.05163758818525821 0.36883991560898621 0.054588307510129108 0.054588307510130107 0.075243342784233391 0.07819406210910429 0.061965105822309852 0.044260789873078465 0.048686868860385313 0.07671870244666934 0.075243342784233391 0.044260789873077466 147.08598154655192 0.58719314564950764 0.045736149535514414 0.069341904134489596 0.087046220083720982 0.050162228522822261 0.22130394936539133 0.078194062109105289 0.078194062109105289 0.045736149535514414 0.044260789873078465 0.3231037660734728 0.12097949231974781 0.056063667172565057 0.11212733434513211 0.045736149535514414 0.044260789873078465 0.89849403442349185
leaf_count=748 35 250 37 37 51 53 42 30 33 52 51 30 99695 398 31 47 59 34 150 53 53 31 30 219 82 38 76 31 30 609
internal_value=-6.51923 -6.53886 -2.12115 24.5812 10.9102 -6.57667 -2.94543 4.77247 -6.58983 18.5128 -4.40411 3.80856 -6.60306 -5.2415 0.591505 -0.526551 -4.92766 -2.72374 -6.60971 -5.17085 -5.33218 -5.65316 -2.31564 -5.92396 -5.03364 -6.61307 -5.43002 -6.24467 -6.01396 -6.61441
internal_weight=152.132 151.961 1.28946 0.185895 0.171142 150.671 0.544408 0.175568 150.127 0.131307 0.90292 0.0958984 149.224 0.725877 0.138684 0.131307 0.827677 0.128356 148.498 0.345234 0.69932 0.621126 0.0929477 0.57539 0.252287 148.153 0.168191 0.26704 0.16524 147.984
internal_count=103115 102999 874 126 116 102125 369 119 101756 89 612 65 101144 492 94 89 561 87 100652 234 474 421 63 390 171 100418 114 181 112 100304
is_linear=0
shrinkage=1


Tree=3
num_leaves=31
num_cat=0
split_feature=551 481 168 20 769 754 92 771 558 771 589 771 771 76 770 772 772 772 208 232 770 149 512 270 369 772 360 209 772 20
split_gain=539.067 528.567 428.676 434.377 806.47 325.112 2708.73 1866.69 384.845 296.935 200.268 197.11 302.168 281.194 186.098 145.701 112.858 111.755 74.9002 256.692 51.212 37.997 129.328 34.3704 31.9425 33.1888 29.046 37.5075 26.823 33.1888
threshold=0.56740230321884166 0.5214986801147462 0.47090537846088415 -0.39495614171028132 1.0000000180025095e-35 0.22530764341354373 -1.0000000180025095e-35 11.500000000000002 -0.63449767231941212 14.500000000000002 -0.82083627581596363 11.500000000000002 13.500000000000002 0.76024949550628673 26.954999923706058 4.5000000000000009 7.5000000000000009 7.5000000000000009 0.47985699772834783 0.90771102905273449 25.704999923706058 -0.72878038883209217 0.2974251657724381 -0.11441678181290625 0.50614234805107128 6.5000000000000009 0.249584935605526 -0.53566393256187428 10.500000000000002 -0.23126468807458875
decision_type=2 2 2 2 2 2 2 2 2 2 2 2 2 2 2 2 2 2 2 2 2 2 2 2 2 2 2 2 2 2
left_child=2 -2 5 4 -4 10 -7 8 -8 -3 11 28 13 17 -11 -6 -10 -13 21 -20 -14 22 23 -12 26 -26 -23 -28 -1 -30
right_child=1 9 3 -5 15 6 7 -9 16 14 18 12 20 -15 -16 -17 -18 -19 19 -21 -22 24 -24 -25 25 -27 27 -29 29 -31
leaf_value=-7.6814550996697983 -7.6814550996697983 -3.2287046638077257 23.918709283866882 -7.6814550996697983 4.563608598950692 -7.6814550996697983 -7.681455099669793 44.56415001444406 16.80867229757267 3.843310734325998 -3.7630347161111537 -7.6814550996697921 -1.1507544604055608 13.499195622268518 18.097626371110422 -7.6814550996697948 4.9586106537448753 3.843310734325998 -7.6814550996697983 3.4084139104018547 -7.6814550996697966 -7.6794875272954277 0.48192069941069526 -7.6814550996698028 -7.6814550996697983 -1.1507544604055608 -2.3862924191852155 -6.9866997125139836 -1.1507544604055608 -7.6814550996697921
leaf_weight=0.15771661751205002 0.056655483960638686 0.022458029678091407 0.015822702727746218 0.05563466442981635 0.016333112493157387 0.51398263376904652 0.016843522258568555 0.01531229296233505 0.016333112493156388 0.017353932023979723 0.025520488270558417 0.016333112493157387 0.01531229296233505 0.018885161320213228 0.019395571085624397 0.023989258974324912 0.015822702727746218 0.017353932023979723 0.091363348008598133 0.027051717566791922 0.055634664429817349 50.824052390817094 0.02449966873973608 0.18221628625177899 0.015822702727745219 0.01531229296233505 0.018885161320213228 0.28787110769189794 0.01531229296233505 0.015822702727746218
leaf_count=309 111 44 31 109 32 1007 33 30 32 34 50 32 30 37 38 47 31 34 179 53 109 99575 48 357 31 30 37 564 30 31
internal_value=-7.59025 -0.77675 -7.60529 -1.41914 4.78625 -7.61848 -5.26054 14.0875 4.56361 5.83034 -7.64479 -5.1204 -2.01432 3.73142 11.3664 -2.72143 10.9777 -1.74445 -7.6601 -5.14799 -6.27195 -7.66589 -6.38967 -7.20008 -7.67168 -4.46964 -7.67363 -6.70348 -7.15194 -4.46964
internal_weight=52.6309 0.115863 52.515 0.11178 0.0561451 52.4033 0.578294 0.0643116 0.0489993 0.0592075 51.825 0.312371 0.123519 0.0525722 0.0367495 0.0403224 0.0321558 0.033687 51.5126 0.118415 0.070947 51.3942 0.232236 0.207737 51.1619 0.031135 51.1308 0.306756 0.188852 0.031135
internal_count=103115 227 102888 219 110 102669 1133 126 96 116 101536 612 242 103 72 79 63 66 100924 232 139 100692 455 407 100237 61 100176 601 370 61
is_linear=0
shrinkage=1


Tree=4
num_leaves=31
num_cat=0
split_feature=225 768 768 622 637 775 551 604 301 775 153 150 22 776 27 768 768 740 221 204 768 750 768 773 775 768 102 41 139 714
split_gain=2547.91 656.649 1335.42 625.885 834.888 466.289 321.71 543.873 179.128 714.023 647.221 161.294 573.912 417.084 155.965 70.7059 160.964 59.4943 207.05 46.0858 37.6279 34.4537 65.2704 98.8607 29.3136 35.4025 23.6662 251.943 4.4657 51.3648
threshold=0.52176737785339367 55.850000381469734 66.250000000000014 0.7040831744670869 0.14856757223606112 119.50000000000001 0.56740230321884166 -1.1596235036849973 0.37625418603420263 417.50000000000006 0.13586658239364627 -0.19708630442619321 -0.056333575397729867 2.5000000000000004 0.47528484463691717 61.250000000000007 68.250000000000014 0.52568167448043834 0.29246285557746893 0.37795665860176092 62.850000381469734 -0.31766019761562342 65.450000762939467 1.5000000000000002 262.50000000000006 62.250000000000007 0.66968247294425975 0.039543278515338905 0.33935160934925085 -0.43781308829784388
decision_type=2 2 2 2 2 2 2 2 2 2 2 2 2 2 2 2 2 2 2 2 2 2 2 2 2 2 2 2 2 2
left_child=3 -2 -3 6 5 -5 8 15 11 19 -11 12 13 -1 -15 -8 -17 26 -19 21 -12 22 -10 -24 -23 -26 28 -28 -13 -30
right_child=1 2 -4 4 -6 -7 7 -9 9 10 20 17 -14 14 -16 16 -18 18 -20 -21 -22 24 23 -25 25 -27 27 -29 29 -31
leaf_value=18.132888119971117 -2.1429311605845012 40.022167820731028 2.6113988776146071 2.9682147222670361 -7.7362606172899566 24.600175304286378 -7.7362606172899566 12.959058372520232 -7.7362606172899566 17.098122170481247 -0.83782095402036383 -7.7321147542766546 -7.7362606172899628 -7.7362606172899531 6.0606187092492236 6.0606187092492236 -7.7362606172899531 5.6155580858133911 -7.7362606172899566 -1.9875608978985637 -7.7362606172899522 -7.7362606172899584 -7.7362606172899522 2.8767234800480432 -1.0603512657387224 -7.7362606172899522 6.0606187092501669 -7.7362606172899575 -2.1429311605848094 -7.7362606172899584
leaf_weight=0.01546243391931057 0.017878439219201847 0.018844841339159757 0.019328042399138212 0.028025661478749408 0.057017725077457726 0.01546243391931057 0.05556812189752236 0.019328042399137213 0.047836904937867075 0.024160052998922765 0.014496031799353659 48.240861024009071 0.17105317523236507 0.018844841339159757 0.014496031799353659 0.014496031799353659 0.020294444519095123 0.014979232859331115 0.051702513417694718 0.017395238159224391 0.017395238159224391 0.45759140379959617 0.01642883603926748 0.018844841339159757 0.014979232859332114 0.016912037099245936 0.01449603179935266 0.15220833389321342 0.017878439219202846 0.20101164095103641
leaf_count=32 37 39 40 58 118 32 115 40 99 50 30 99836 354 39 30 30 42 31 107 36 36 947 34 39 31 35 30 315 37 416
internal_value=-7.63591 13.6727 21.08 -7.65991 0.223477 10.6596 -7.67586 -2.26613 -7.68783 -6.03358 4.75229 -7.70968 -5.00721 4.55799 -1.73762 -5.52286 -1.98756 -7.72188 -4.73694 -7.05828 -4.60061 -7.21233 -5.32983 -2.06631 -7.53196 -4.60061 -7.72598 -6.53653 -7.73007 -7.27941
internal_weight=49.8253 0.0560513 0.0381729 49.7692 0.100506 0.0434881 49.6687 0.109687 49.559 0.64604 0.0560513 48.913 0.219856 0.0488033 0.0333409 0.0903586 0.0347905 48.6931 0.0666817 0.589988 0.0318913 0.572593 0.0831106 0.0352737 0.489483 0.0318913 48.6265 0.166704 48.4598 0.21889
internal_count=103115 116 79 102999 208 90 102791 227 102564 1337 116 101227 455 101 69 187 72 100772 138 1221 66 1185 172 73 1013 66 100634 345 100289 453
is_linear=0
shrinkage=1


Tree=5
num_leaves=20
num_cat=0
split_feature=149 112 768 225 768 551 113 770 504 771 589 775 771 108 768 740 768 768 0
split_gain=1124.98 4442.71 3201.98 887.625 880.873 806.794 1069.1 1185.29 677.286 579.282 167.765 1050.62 689.17 37.8192 58.1198 20.8464 75.1492 0.193597 7.10543e-15
threshold=-0.72878038883209217 -0.0088807791471481306 70.649997711181655 0.52176737785339367 59.250000000000007 0.56740230321884166 0.029994530603289608 25.564999580383304 -0.47614784538745875 16.500000000000004 -0.82083627581596363 417.50000000000006 16.500000000000004 0.77243876457214367 72.049999237060561 0.52568167448043834 55.250000000000007 66.049999237060561 0.86376532912254345
decision_type=2 2 2 2 2 2 2 2 2 2 2 2 2 2 2 2 2 2 2
left_child=1 -1 4 5 -3 10 -7 -8 -5 -10 11 -2 -13 15 -15 18 -17 -9 -12
right_child=3 2 -4 8 -6 6 7 17 9 -11 13 12 -14 14 -16 16 -18 -19 -20
leaf_value=-8.0671012784922365 -8.0671012784922382 29.837123554505283 78.354531340733843 -8.0671012784922329 -8.0671012784922294 -8.0671012784922382 39.944916843300788 0.93515211934387299 33.086057111619354 1.2255473902417853 -8.0671012784922382 28.865220353656468 -1.8046641321712942 -8.0671012784922382 1.5353023458662216 1.5353023458671347 -8.0671012784922347 1.5353023458662216 -8.0671012784922382
leaf_weight=0.13572990131797269 0.18294030177639697 0.013191141304559006 0.010414058924652636 0.01735676487442106 0.0114554648171179 0.044780453376005336 0.012496870709583163 0.011108329519629478 0.012149735412093743 0.010761194222141057 35.075244728825055 0.013538276602048427 0.015968223684467375 0.015968223684466376 0.010414058924652636 0.010414058924651637 0.03749061212874949 0.010414058924652636 0.14301974256522854
leaf_count=391 527 38 30 50 33 129 36 32 35 31 101042 39 46 46 30 30 108 30 412
internal_value=-7.96653 0.130073 31.8637 -8.00535 12.2197 -8.02214 2.08522 15.449 6.83318 18.1213 -8.04457 -5.24286 12.2674 -8.06143 -4.27668 -8.06427 -5.97962 1.22555 -8.0671
internal_weight=35.7949 0.170791 0.0350607 35.6241 0.0246466 35.5838 0.0787997 0.0340193 0.0402677 0.0229109 35.505 0.212447 0.0295065 35.2926 0.0263823 35.2662 0.0479047 0.0215224 35.2183
internal_count=103115 492 101 102623 71 102507 227 98 116 66 102280 612 85 101668 76 101592 138 62 101454
is_linear=0
shrinkage=1


Tree=6
num_leaves=31
num_cat=0
split_feature=775 514 383 432 25 75 622 747 773 326 502 551 775 260 5 120 775 256 150 423 139 299 121 768 257 22 0 10 707 10
split_gain=926.616 3197.4 2666.53 1097.23 878.995 779.555 242.137 1007.59 768.109 1818.87 229.653 151.59 411.887 88.3371 74.5596 230.1 31.4557 344.697 8.60542 85.3764 6.26595 87.7714 5.78892 88.3042 4.55809 89.5915 7.10543e-15 7.10543e-15 7.10543e-15 4.44089e-16
threshold=577.50000000000011 -0.43823175132274622 0.025252724997699264 0.054210614413023002 -0.24500080198049543 -0.24538461118936536 0.63419124484062206 0.053918525576591499 2.5000000000000004 0.50620645284652721 -0.13851936906576154 0.56740230321884166 417.50000000000006 0.65105029940605175 0.39084634184837347 0.080185852944850936 517.50000000000011 -0.02646073047071695 -0.19708630442619321 0.060687122866511352 0.33935160934925085 0.4548052847385407 -0.22047995030879972 80.049999237060561 -0.50714719295501698 0.065340846776962294 0.83945620059967052 -0.13950387388467786 -1.0000000180025095e-35 -0.069654908031225191
decision_type=2 2 2 2 2 2 2 2 2 2 2 2 2 2 2 2 2 2 2 2 2 2 2 2 2 2 2 2 2 2
left_child=6 2 4 -3 -2 -5 11 -8 10 -10 -9 14 -13 -7 16 -16 18 -18 19 -1 22 -22 23 -20 25 -24 27 28 -26 -29
right_child=1 3 -4 5 -6 13 7 8 9 -11 -12 12 -14 -15 15 -17 17 -19 20 -21 21 -23 24 -25 26 -27 -28 29 -30 -31
leaf_value=1.370122526118374 -8.0476838734944227 22.496553098222769 67.294767323400919 19.294334706024131 29.623541724953249 -8.0476838734944298 -8.0476838734944298 -8.0476838734944263 -8.0476838734944227 45.40473082700661 8.5719744787620886 -8.0476838734944298 10.787928925730002 1.0663223196784308 -8.0476838734944298 7.2244346123630141 -8.0476838734944298 10.787928925731178 -8.0476838734944351 -8.0476838734944298 -8.0476838734944298 1.3701225261174965 1.3701225261246091 1.3701225261174965 -8.0476838734944298 -8.0476838734944298 -8.0476838734944298 -8.0476838734944298 -8.0476838734944298 -8.047683873494428
leaf_weight=0.010618183587211116 0.014865457022096962 0.01309575975756061 0.010618183587212116 0.010972123040119186 0.010618183587212116 0.3457988454902079 0.25979155843378876 0.026899398420937359 0.012387880851747468 0.013095759757561609 0.012033941398840398 0.042826673801754533 0.015927275380818173 0.010972123040119186 0.039995158178497969 0.013095759757561609 0.11432244328898378 0.010618183587211116 0.1596266932610807 0.10299638079595752 0.14546911514480498 0.010618183587212116 0.010618183587204011 0.010618183587212116 32.229726581717827 0.20740851940354332 0.19997579089249384 1.1552583742886784 0.058753949182572707 1.2168438390945358
leaf_count=30 42 37 30 31 30 977 734 76 35 37 34 121 45 31 113 37 323 30 451 291 411 30 30 30 91060 586 565 3264 166 3438
internal_value=-7.93808 -3.25084 25.1916 -5.94706 7.64866 -6.95997 -7.99225 -5.27169 5.92379 19.4209 -2.9107 -8.01692 -2.94164 -7.76739 -8.02527 -4.28056 -8.03085 -6.44692 -8.03642 -7.16752 -8.03921 -7.40702 -8.04201 -7.46029 -8.04483 -7.58902 -8.04768 -8.04768 -8.04768 -8.04768
internal_weight=36.4965 0.416941 0.0361018 0.380839 0.0254836 0.367743 36.0795 0.324209 0.064417 0.0254836 0.0389333 35.7553 0.0587539 0.356771 35.6966 0.0530909 35.6435 0.124941 35.5185 0.113615 35.4049 0.156087 35.2488 0.170245 35.0786 0.218027 34.8606 34.6606 32.2885 2.3721
internal_count=103115 1178 102 1076 72 1039 101937 916 182 72 110 101021 166 1008 100855 150 100705 353 100352 321 100031 441 99590 481 99109 616 98493 97928 91226 6702
is_linear=0
shrinkage=1


Tree=7
num_leaves=31
num_cat=0
split_feature=58 783 775 774 23 775 772 771 244 740 309 771 774 774 775 772 774 772 771 613 138 775 775 765 369 772 774 237 639 67
split_gain=8275.29 7745.27 1460.3 917.526 693.104 274.281 271.346 196.744 164.141 153.012 194.36 115.968 231.95 260.107 91.8701 196.607 74.9491 66.7013 114.579 55.4939 72.3293 195.493 16.9838 16.3155 13.8578 13.4839 12.0976 14.1656 11.7459 16.5265
threshold=0.40970245003700262 1.0000000180025095e-35 262.50000000000006 11.500000000000002 -0.32905755937099451 206.00000000000003 10.500000000000002 9.5000000000000018 -0.78763315081596363 0.52568167448043834 -0.15711016952991483 8.5000000000000018 14.500000000000002 12.500000000000002 235.50000000000003 3.5000000000000004 10.500000000000002 10.500000000000002 9.5000000000000018 0.24883388727903369 -1.0222303271293638 356.00000000000006 297.50000000000006 -0.04377311468124389 0.50614234805107128 6.5000000000000009 8.5000000000000018 -0.14798288047313687 0.53434690833091747 0.078379556536674513
decision_type=2 2 2 2 2 2 2 2 2 2 2 2 2 2 2 2 2 2 2 2 2 2 2 2 2 2 2 2 2 2
left_child=8 -2 3 4 -3 7 11 -6 14 19 23 -5 13 -13 17 -16 -17 26 -19 24 -21 -22 -18 -11 28 -26 27 -1 -10 -30
right_child=1 2 -4 6 5 -7 -8 -9 9 10 -12 12 -14 -15 15 16 22 18 -20 20 21 -23 -24 -25 25 -27 -28 -29 29 -31
leaf_value=-6.8457182151865927 -6.8457182151865954 24.467674540894507 24.467674540894738 -1.8461008843837412 12.041725034513242 17.126805909432285 12.346361215959789 4.1719570138049775 -6.8431940308192152 -1.3622669491447681 -6.8457182151865954 7.7245951488674436 9.4296318191291846 -2.3723763928892607 0.88096311423606899 -6.8457182151865945 -1.3622669491447681 0.045646213757891019 -6.8457182151865936 -6.8457182151865945 -6.8457182151865954 1.2489003203990139 -4.3459095497851674 1.6536312471782271 -4.103992582165608 -6.8457182151865927 -6.8457182151865954 -4.0126017277315755 -4.0126017277315755 -6.8457182151865936
leaf_weight=0.035296819405630231 0.48474298650398739 0.044709304580464959 0.067063956870697439 0.040003061993047595 0.063534274930134416 0.0458858652273193 0.036473380052484572 0.063534274930134416 118.85027374199126 0.036473380052484572 0.09059516980778326 0.041179622639901936 0.055298350402154028 0.067063956870697439 0.064710835576988757 0.13412791374139488 0.036473380052484572 0.043532743933610618 0.054121789755299687 0.16118880861904472 0.075299881398676827 0.049415547167882323 0.040003061993047595 0.035296819405630231 0.036473380052483573 0.035296819405630231 0.4129727870458737 0.035296819405629232 0.035296819405629232 0.049415547167882323
leaf_count=30 412 38 57 34 54 39 31 54 101015 31 77 35 47 57 55 114 31 37 46 137 64 42 34 30 31 30 351 30 30 42
internal_value=-6.74846 2.2678 10.6866 8.66723 13.369 10.4999 4.40342 8.10684 -6.82411 -6.834 -3.76624 2.98012 4.16063 1.46886 -5.44473 -3.93996 -5.42125 -6.15751 -3.77366 -6.83817 -5.44665 -3.63842 -2.92294 0.120962 -6.84152 -5.45238 -6.63892 -5.42916 -6.84236 -5.66525
internal_weight=121.321 1.00949 0.524746 0.457682 0.217664 0.172954 0.240018 0.127069 120.312 119.455 0.162365 0.203545 0.163542 0.108244 0.856536 0.275315 0.210604 0.581221 0.0976545 119.293 0.285904 0.124715 0.0764764 0.0717702 119.007 0.0717702 0.483566 0.0705936 118.935 0.0847124
internal_count=103115 858 446 389 185 147 204 108 102257 101529 138 173 139 92 728 234 179 494 83 101391 243 106 65 61 101148 61 411 60 101087 72
is_linear=0
shrinkage=1


Tree=8
num_leaves=31
num_cat=0
split_feature=623 474 293 71 768 360 36 773 768 768 774 768 773 768 9 589 211 774 605 768 139 454 770 773 768 752 571 551 768 768
split_gain=1436.63 1592.28 1181.64 5705.75 2002.02 692.522 353.098 178.877 214.687 520.847 142.777 92.4351 140.366 74.7333 48.8168 36.2885 73.2055 89.3104 24.3696 59.8451 21.9702 73.3216 111.198 21.2059 58.3238 19.5617 64.802 11.1836 30.3186 42.9116
threshold=0.30864875018596655 -0.0031743998406454916 -0.29128283262252802 -0.41477079689502711 62.45000076293946 0.249584935605526 0.1684544309973717 3.5000000000000004 71.450000762939467 74.850002288818374 12.500000000000002 56.250000000000007 2.5000000000000004 73.649997711181655 -0.15823713690042493 -0.82083627581596363 0.16745405644178393 11.500000000000002 0.81391364336013805 54.850000381469734 0.33935160934925085 0.23895917832851413 25.345000267028812 1.0000000180025095e-35 56.45000076293946 0.61348706483840953 -0.09135867282748221 0.56740230321884166 67.850002288818374 73.850002288818374
decision_type=2 2 2 2 2 2 2 2 2 2 2 2 2 2 2 2 2 2 2 2 2 2 2 2 2 2 2 2 2 2
left_child=2 -2 3 4 -1 15 13 8 10 -10 11 -8 14 -7 -13 16 17 -4 20 -20 25 22 -22 24 -18 27 -27 -17 -29 -30
right_child=1 -3 5 -5 -6 6 7 -9 9 -11 -12 12 -14 -15 -16 18 23 -19 19 -21 21 -23 -24 -25 -26 26 -28 28 29 -31
leaf_value=73.776623957431781 42.724881165713995 -7.938488652351527 -7.938488652351527 -7.938488652351527 16.576045130583474 -7.938488652351527 7.8938144157944512 -7.9384886523515217 25.837091226358822 -1.7600289184409528 -7.9384886523515217 -7.9384886523515217 5.8787940253032369 0.50540631732606744 0.23302260862681212 -7.938488652351527 0.50540631732606744 1.8044670818921924 0.50540631732677088 -7.9384886523515235 -7.938488652351527 -7.9384886523515261 2.4009745758254502 -7.9384886523515261 -7.9384886523515235 -7.9384886523515243 0.50540631732677088 -7.938488652351527 0.50540631732606744 -7.938488652351519
leaf_weight=0.012237638205988333 0.011842875683214515 0.013027163251534968 0.017369551002046957 0.11645494421827507 0.012237638205988333 0.09119014276075077 0.018948601093143225 0.020132888661464676 0.011842875683214515 0.016185263433726504 0.018553838570369408 0.01815907604759559 0.021711938752559945 0.011842875683214515 0.012237638205988333 39.697319290135056 0.011842875683214515 0.020527651184238493 0.011842875683213516 0.028817664162488654 0.02250146379810658 0.1377721204480622 0.019343363615917042 0.1654054970422294 0.026449089025845751 0.039081489754607901 0.011842875683213516 0.065135816257678836 0.011842875683214515 0.012237638205988333
leaf_count=31 30 33 44 295 31 231 48 51 30 41 47 46 55 30 31 100560 30 52 30 73 57 349 49 419 67 99 30 165 30 31
internal_value=-7.84022 16.1869 -7.85491 1.28593 45.1763 -7.88669 -2.53993 0.771546 2.26219 9.90073 -0.126956 1.91272 -0.26222 -6.96793 -4.64866 -7.91864 -6.69674 -2.66105 -7.92601 -5.4791 -7.92849 -6.82501 -3.15893 -7.44756 -5.32697 -7.93347 -5.97479 -7.93598 -6.81762 -3.78575
internal_weight=40.7059 0.02487 40.6811 0.14093 0.0244753 40.5401 0.240805 0.137772 0.117639 0.0280281 0.0896111 0.0710573 0.0521087 0.103033 0.0303967 40.2993 0.241595 0.0378972 40.0577 0.0406605 40.0171 0.179617 0.0418448 0.203697 0.038292 39.8375 0.0509244 39.7865 0.0892163 0.0240805
internal_count=103115 63 103052 357 62 102695 610 349 298 71 227 180 132 261 77 102085 612 96 101473 103 101370 455 106 516 97 100915 129 100786 226 61
is_linear=0
shrinkage=1


Tree=9
num_leaves=27
num_cat=0
split_feature=54 132 773 774 686 470 42 791 434 759 88 772 314 775 189 62 3 774 203 0 44 9 84 0 16 86
split_gain=11719.9 8029.28 1599.85 1231.21 1058.03 1014.21 1735.53 411.917 4807.8 2704.17 1278.98 233.873 111.477 32.71 27.1442 23.821 2.4033 9.05732 22.5592 1.42109e-14 1.77636e-15 8.88178e-16 4.44089e-16 5.55112e-17 2.77556e-17 1.38778e-17
threshold=0.4050136953592301 -1.0000000180025095e-35 1.5000000000000002 12.500000000000002 0.1952457129955292 0.85262271761894237 0.54443299770355236 1.0000000180025095e-35 -0.11620090156793593 0.458258867263794 -0.60583510994911183 6.5000000000000009 -0.039177460595965378 385.00000000000006 -0.31438918411731714 0.65278276801109325 -0.42120386660099024 8.5000000000000018 0.53151503205299389 -0.02276466321200132 0.21877179294824603 -0.08456875383853911 -0.26038661599159235 0.55150124430656444 -0.062869030982255922 -0.092611506581306444
decision_type=2 2 2 2 2 2 2 2 2 2 2 2 2 2 2 2 2 2 2 2 2 2 2 2 2 2
left_child=4 15 3 -3 5 7 -7 16 9 -9 -10 -4 13 14 -12 -2 17 18 -1 20 -18 22 -16 24 -19 -25
right_child=1 2 11 -5 -6 6 -8 8 10 -11 12 -13 -14 -15 21 -17 19 23 -20 -21 -22 -23 -24 25 -26 -27
leaf_value=-3.6261737658469619 -7.0291767851140072 30.957833662518141 13.38884133048758 57.627880580957687 8.1757303222493931 23.597850388289409 -7.0291767851140063 34.241285363442593 9.6385931051731042 -3.8388614545512509 -4.2699851478706528 25.903110498114394 -1.195457323513283 -3.6261737658470623 -7.0291767851140081 -3.6261737658470743 -7.0291767851140081 -7.0291767851140081 -7.0291767851140063 -7.0291767851140081 -7.0291767851140081 -7.029176785114009 -7.0291767851140072 -7.0291767851140063 -7.0291767851140063 -7.0291767851140063
leaf_weight=0.029385810485108688 0.068566891131922603 0.042119661695322885 0.029385810485109687 0.029385810485109687 0.046037769760004177 0.029385810485108688 0.049955877824686468 0.046037769760005509 0.047996823792346155 0.031344864517450333 0.036242499598303612 0.03036533750128001 0.034283445565959858 0.029385810485109576 2.022723288391719 0.029385810485109687 2.9140928731067097 0.17729438992682844 0.057792093954049051 90.693426900194027 4.2051094804191962 0.10285033669788246 0.07150547218043346 0.048976350808516145 0.043099188711494207 0.057792093954049051
leaf_count=30 70 43 30 30 47 30 51 47 49 32 37 31 35 30 2065 30 2975 181 59 92589 4293 105 73 50 44 59
internal_value=-6.92918 15.6575 31.826 41.9181 -6.98055 -6.98748 4.31417 -6.99639 -5.70816 18.8164 -6.51745 19.7486 -6.85504 -6.94079 -6.9844 -6.00828 -7.02816 -6.78783 -5.8821 -7.02918 -7.02918 -7.02918 -7.02918 -7.02918 -7.02918 -7.02918
internal_weight=101.004 0.229209 0.131257 0.0715055 100.775 100.729 0.0793417 100.649 2.42237 0.0773826 2.34499 0.0597511 2.29699 2.26271 2.23332 0.0979527 98.227 0.41434 0.0871779 97.8126 7.1192 2.19708 2.09423 0.327162 0.220394 0.106768
internal_count=103115 234 134 73 102881 102834 81 102753 2473 79 2394 61 2345 2310 2280 100 100280 423 89 99857 7268 2243 2138 334 225 109
is_linear=0
shrinkage=1


Tree=10
num_leaves=29
num_cat=0
split_feature=726 774 708 54 775 686 706 791 324 47 740 387 338 178 241 289 296 771 0 1 5 106 1 106 772 98 0 0
split_gain=2061.28 1654.07 1240.64 364.582 894.151 327.659 98.7134 342.051 73.9508 440.749 27.7498 100.849 11.386 117.288 9.84998 118.899 3.09727 67.1535 3.55271e-15 1.77636e-15 1.77636e-15 1.77636e-15 1.11022e-16 1.11022e-16 5.55112e-17 6.93889e-18 3.46945e-18 3.46945e-18
threshold=0.73907247185707103 10.500000000000002 0.182858482003212 0.4050136953592301 356.00000000000006 0.1952457129955292 0.36903432011604315 1.0000000180025095e-35 0.55484306812286388 0.45320929586887365 0.52568167448043834 0.12231561914086343 0.27889773249626165 -0.11212998256087302 0.16879841685295108 0.072751361876726164 -1.0226289629936216 10.500000000000002 0.33028493821620947 0.5806298851966859 0.25192070007324224 0.44336278736591345 0.78461876511573803 0.64993247389793407 5.5000000000000009 0.78158846497535717 0.098844274878501906 0.13549289852380755
decision_type=2 2 2 2 2 2 2 2 2 2 2 2 2 2 2 2 2 2 2 2 2 2 2 2 2 2 2 2
left_child=3 -2 -3 5 26 6 8 25 10 -10 12 -12 14 -14 16 -16 17 24 -18 20 21 -20 -21 -23 -1 -8 -5 -13
right_child=1 2 -4 4 -6 -7 7 -9 9 -11 11 27 13 -15 15 -17 18 -19 19 22 -22 23 -24 -25 -26 -27 -28 -29
leaf_value=-8.3613319210608452 -8.3613319210608648 3.3534843517514386 52.280069961734682 -8.3613319210608648 23.196948650597946 8.0892611428902352 -8.3613319210608648 13.729464479099613 17.411263879129194 -8.361331921060863 4.5249659790341621 -8.3613319210608559 -8.361331921060863 4.5249659790341621 4.5249659790341621 -8.3613319210608648 -8.3613319210608648 -1.332442157373154 -8.3613319210608648 -8.3613319210608648 -8.361331921060863 -8.3613319210608648 -8.361331921060863 -8.3613319210608541 -8.3613319210608648 -8.3613319210608559 -8.3613319210608594 -8.3613319210608594
leaf_weight=0.12830165494235757 0.01733107032487069 0.0085361988167278469 0.013192307262215763 0.013709652645046755 0.012674961879383773 0.012157616496550783 0.019917797239030643 0.0090535441995598376 0.0077601807424788607 0.045785066380631179 0.0077601807424788607 0.011898943805135787 0.078636498190462589 0.0077601807424788607 0.0077601807424788607 0.092604823526926339 16.248007765912927 0.014226998027879745 8.1236158739193272 0.54838610580191094 0.12649094610242251 0.85232651821570549 0.035438158723991364 0.0090535441995598376 0.17641477554570884 0.0111229257308878 0.017072397633455694 0.016037706867791712
leaf_count=496 67 33 51 53 49 47 77 35 30 177 30 46 304 30 30 358 62813 55 31405 2120 489 3295 137 35 682 43 66 62
internal_value=-8.2751 14.6804 33.0589 -8.30877 0.843167 -8.32372 -8.33123 -3.37309 -8.33872 -4.62617 -8.34623 -5.55996 -8.34999 -7.20388 -8.35375 -7.36497 -8.35752 -8.0478 -8.36133 -8.36133 -8.36133 -8.36133 -8.36133 -8.36133 -8.36133 -8.36133 -8.36133 -8.36133
internal_weight=26.673 0.0390596 0.0217285 26.634 0.043457 26.5905 26.5784 0.0400943 26.5383 0.0535452 26.4847 0.0356968 26.449 0.0863967 26.3626 0.100365 26.2623 0.318943 25.9433 9.69531 9.11149 8.985 0.583824 0.86138 0.304716 0.0310407 0.0307821 0.0279367
internal_count=103115 151 84 102964 168 102796 102749 155 102594 207 102387 138 102249 334 101915 388 101527 1233 100294 37481 35224 34735 2257 3330 1178 120 119 108
is_linear=0
shrinkage=1


Tree=11
num_leaves=25
num_cat=0
split_feature=726 374 771 773 791 81 434 142 770 13 772 356 27 596 0 0 45 0 1 10 45 45 0 1
split_gain=11738.4 10602.9 1549.39 1823.7 813.89 5642.64 2332.34 2325.03 981.054 439.36 394.262 168.672 74.2224 29.3169 2.84217e-14 3.55271e-15 3.55271e-15 4.44089e-16 4.44089e-16 4.44089e-16 1.11022e-16 1.11022e-16 2.77556e-17 2.77556e-17
threshold=0.7188783884048463 -0.13110411912202832 14.500000000000002 1.5000000000000002 1.0000000180025095e-35 -0.45304289460182184 -0.11620090156793593 -0.15185953676700589 27.335000038146976 0.25159779191017156 6.5000000000000009 -0.012198054697364567 0.90364032983779918 -0.12392186373472212 0.41157007217407232 0.57562971115112316 -0.7745373249053954 0.4499040842056275 0.1106957755982876 -0.25264365971088404 -0.38583873212337488 -0.65191933512687672 0.43420273065567022 0.41443842649459844
decision_type=2 2 2 2 2 2 2 2 2 2 2 2 2 2 2 2 2 2 2 2 2 2 2 2
left_child=4 22 9 -4 12 7 -7 -6 10 -3 -9 -8 14 17 -1 16 -16 19 -17 -13 21 -18 -2 -19
right_child=1 2 3 -5 5 6 11 8 -10 -11 -12 13 -14 -15 15 18 20 23 -20 -21 -22 -23 -24 -25
leaf_value=-6.8930588945147058 -6.8930588945147049 25.094982398185142 19.598967581485113 46.908929694823229 -4.9971111583212835 13.282686826486756 -1.0815669205306131 7.557137365121446 34.691394785993872 11.333893205708382 21.246796979513832 -6.8930588945147058 -3.1801612444691876 -3.9227407744781395 -6.8930588945147058 -6.8930588945147058 -6.8930588945147058 -6.8930588945147058 -6.8930588945147058 -6.8930588945147058 -6.8930588945147031 -6.8930588945147049 -6.8930588945147031 -6.893058894514704
leaf_weight=90.635633847559802 0.13803235266823322 0.043766355724072947 0.041521927225403488 0.059477355214767158 0.052744069718755782 0.059477355214767935 0.051621855469421329 0.041521927225403821 0.033666427480056882 0.049377426970750093 0.042644141474738717 2.055896504782142 0.053866283968090012 0.033666427480054106 17.416765149682764 1.108747678343206 0.62507333687972277 0.17843206564430136 2.4161272788187489 0.27718691958580199 0.14476563816424715 0.077432783204130828 0.035910855978727341 0.043766355724073946
leaf_count=80765 123 39 37 53 47 53 46 37 30 44 38 1832 48 30 15520 988 557 159 2153 247 129 69 32 39
internal_value=-6.79195 11.0375 27.1025 35.6815 -6.84885 -5.18611 -6.30048 12.4531 20.2641 17.7999 14.4932 -6.74158 -6.89128 -6.85443 -6.89306 -6.89306 -6.89306 -6.89306 -6.89306 -6.89306 -6.89306 -6.89306 -6.89306 -6.89306
internal_weight=115.717 0.368086 0.194143 0.100999 115.349 2.87062 2.70005 0.170577 0.117832 0.0931438 0.0841661 2.64057 112.478 2.58895 112.425 21.7889 18.264 2.55528 3.52487 2.33308 0.847272 0.702506 0.173943 0.222198
internal_count=103115 328 173 90 102787 2558 2406 152 105 83 75 2353 100229 2307 100181 19416 16275 2277 3141 2079 755 626 155 198
is_linear=0
shrinkage=1


Tree=12
num_leaves=29
num_cat=0
split_feature=413 768 775 391 305 470 42 65 76 768 784 768 124 639 155 172 193 251 776 778 774 1 312 1 11 44 768 1
split_gain=5901.42 3312.93 994.985 877.88 2294.05 868.04 1482.43 71.0368 528.865 787.271 131.691 495.215 67.3977 39.0993 54.9372 23.2649 70.8281 3.98489 9.50511 28.0308 52.6289 7.10543e-15 7.10543e-15 1.11022e-16 2.77556e-17 6.93889e-18 6.93889e-18 3.46945e-18
threshold=0.70952421426773082 74.649997711181655 235.50000000000003 0.50264379382133495 0.38952052593231207 0.85262271761894237 0.54443299770355236 0.070156544446945204 0.83043333888053905 68.649997711181655 1.0000000180025095e-35 69.250000000000014 -0.1581877917051315 0.53434690833091747 -0.031069817952811715 0.42925906181335455 -0.23039139807224271 -0.49607600271701807 2.5000000000000004 1.0000000180025095e-35 12.500000000000002 0.74577659368515026 -0.671329766511917 0.57524469494819652 -0.23725398629903791 0.13956911116838458 69.049999237060561 0.62329459190368663
decision_type=2 2 2 2 2 2 2 2 2 2 2 2 2 2 2 2 2 2 2 2 2 2 2 2 2 2 2 2
left_child=3 2 -2 5 -5 7 -7 13 10 12 23 25 -10 15 -15 17 -17 18 19 26 -21 22 -19 -9 -20 -12 -1 -25
right_child=1 -3 -4 4 -6 6 -8 8 9 -11 11 -13 -14 14 -16 16 -18 21 24 20 -22 -23 -24 27 -26 -27 -28 -29
leaf_value=-8.0476838734944476 -8.0476838734944298 72.6763709803231 28.020510848424784 44.927477124327595 -8.0476838734944263 39.041348124569595 -8.0476838734944245 -8.0476838734944298 -8.0476838734944263 19.119065356156419 -8.0476838734944245 13.142380525632889 1.0663223196785214 -8.0476838734944227 1.370122526118374 -8.0476838734944263 1.370122526118374 -8.0476838734944298 -8.0476838734944209 1.3701225261174965 -8.0476838734944227 -8.0476838734944298 -8.0476838734944298 -8.0476838734944209 -8.0476838734944298 -8.0476838734944263 -8.0476838734944209 -8.0476838734944245
leaf_weight=0.038579400366862582 0.014157578116281822 0.012387880851747468 0.016635154286632314 0.011326062493025257 0.029376974591286853 0.010618183587211116 0.018050912098260596 0.93156864005140849 0.031146671855822206 0.018404851551167667 0.018050912098260596 0.014157578116282821 0.010972123040119075 0.014865457022096962 0.010618183587211116 0.032208490214543417 0.010618183587211116 2.4662501078564594 0.012033941398840398 0.010618183587212116 0.01344969921046868 0.28669095685472612 32.229726581717856 0.010618183587212116 0.16316608779015951 0.031854550761636347 0.011326062493026257 0.016989093739539385
leaf_count=109 40 35 47 32 83 30 51 2632 88 52 51 40 31 42 30 91 30 6968 34 30 38 810 91060 30 461 90 32 48
internal_value=-7.94082 29.006 11.4374 -7.98459 6.69323 -8.001 9.3927 -8.0147 -7.21724 1.8658 -7.7545 -3.3648 -5.67345 -8.03919 -4.1236 -8.04201 -5.71269 -8.04485 -7.64636 -6.69585 -3.89277 -8.04768 -8.04768 -8.04768 -8.04768 -8.04768 -8.04768 -8.04768
internal_weight=36.4965 0.0431806 0.0307927 36.4533 0.040703 36.4126 0.0286691 36.3839 1.08376 0.0605236 1.02324 0.064063 0.0421188 35.3002 0.0254836 35.2747 0.0428267 35.2318 0.249173 0.0739733 0.0240679 34.9827 34.696 0.959176 0.1752 0.0499055 0.0499055 0.0276073
internal_count=103115 122 87 102993 115 102878 81 102797 3062 171 2891 181 119 99735 72 99663 121 99542 704 209 68 98838 98028 2710 495 141 141 78
is_linear=0
shrinkage=1


Tree=13
num_leaves=31
num_cat=0
split_feature=703 129 697 22 768 486 154 784 774 784 773 3 21 768 221 605 768 0 200 768 229 773 29 706 773 399 768 539 768 0
split_gain=2164.44 6685.61 423.444 989.913 956.572 187.353 597.856 872.404 287.413 640.35 1190.46 182.975 25.2538 57.3357 23.7233 110.33 152.323 96.577 21.1761 60.162 20.4403 76.818 234.377 15.9408 57.1765 7.06006 70.6849 4.18839 41.0637 7.10543e-15
threshold=0.42410987615585333 -0.062850508838891969 -0.4530929028987884 0.059614956378936775 67.049999237060561 0.90527775883674633 -0.31645120680332178 1.0000000180025095e-35 13.500000000000002 1.0000000180025095e-35 1.5000000000000002 -0.24605586379766461 0.82756614685058605 65.049999237060561 0.55013820528984081 0.044144313782453544 69.250000000000014 0.10377139225602151 -0.094108216464519487 66.450000762939467 -0.57448810338973988 1.0000000180025095e-35 0.16048271209001544 0.36903432011604315 3.5000000000000004 -0.74725016951560963 36.250000000000007 -0.52699385583400715 70.450000762939467 0.48044745624065405
decision_type=2 2 2 2 2 2 2 2 2 2 2 2 2 2 2 2 2 2 2 2 2 2 2 2 2 2 2 2 2 2
left_child=2 -2 3 4 -1 12 7 -7 18 -10 -11 -6 14 -14 20 16 17 -16 19 -8 21 22 -4 25 -25 26 -22 28 -27 -29
right_child=1 -3 5 -5 11 6 8 -9 9 10 -12 -13 13 -15 15 -17 -18 -19 -20 -21 23 -23 -24 24 -26 27 -28 29 -30 -31
leaf_value=29.43236107709637 -7.9213948978107576 55.466797059607394 8.6802744243799204 -7.9213948978107576 -7.9213948978107522 -7.9213948978107531 -7.9213948978107558 24.004892260227496 -7.9213948978107567 28.521293858193996 -7.921394897810754 8.1447367042985519 -7.9213948978107585 0.37943976327903517 8.6802744243701895 -7.9213948978107585 -7.9213948978107558 -2.7333732346294761 -7.9213948978107585 0.37943976327903517 -0.13936240303419201 -7.9213948978107576 -7.9213948978107549 -7.9213948978107585 -0.59712902037851734 -7.921394897810762 -7.9213948978107576 -7.9213948978107585 -3.3936669008525184 -7.9213948978107585
leaf_weight=0.016062641516326859 0.067463094368577003 0.022086132084949806 0.012046981137237789 0.10280090570449829 0.016464207554236054 0.018873603781685233 0.031723716994747519 0.015661075478419662 0.065053698141127825 0.016464207554236054 0.019676735857501626 0.01244854717515409 0.026904924539848163 0.012046981137245893 0.012046981137244894 0.29796200012788177 0.035337811335921288 0.01927516981959343 0.55496426438912649 0.012046981137245893 0.012850113213054182 0.15098883025348186 0.028912754729390144 0.048589490586890771 0.013653245288878679 0.21523939631878519 0.12729643401689827 35.996781204128659 0.022086132084950805 3.4036737373098722
leaf_count=40 168 55 30 256 41 47 79 39 162 41 49 31 67 30 30 742 88 48 1382 30 32 376 72 121 34 536 317 89641 55 8476
internal_value=-7.81755 7.71246 -7.85121 -2.50781 9.86611 -7.87039 -6.28755 6.55681 -6.92129 -1.99223 8.68027 -1.00403 -7.89914 -5.35413 -7.90159 -7.09862 -3.42094 1.65649 -7.75438 -5.63676 -7.9089 -6.87945 -3.03855 -7.91386 -6.31478 -7.91637 -7.20786 -7.91887 -7.50003 -7.92139
internal_weight=41.4075 0.0895492 41.3179 0.147776 0.0449754 41.1702 0.734464 0.0345347 0.69993 0.101195 0.0361409 0.0289128 40.4357 0.0389519 40.3967 0.364622 0.06666 0.0313222 0.598735 0.0437707 40.0321 0.191949 0.0409597 39.8402 0.0622427 39.7779 0.140147 39.6378 0.237326 39.4005
internal_count=103115 223 102892 368 112 102524 1829 86 1743 252 90 72 100695 97 100598 908 166 78 1491 109 99690 478 102 99212 155 99057 349 98708 591 98117
is_linear=0
shrinkage=1


Tree=14
num_leaves=31
num_cat=0
split_feature=70 754 768 773 768 8 775 768 768 97 774 768 768 768 587 48 774 102 218 774 768 768 775 768 3 802 108 774 134 121
split_gain=9659.11 11302.3 2588.15 719.976 570.401 477.336 455.591 372.859 498.334 358.492 306.504 245.968 203.792 227.704 167.111 207.261 81.3859 34.2936 84.3258 58.9334 35.5926 65.9774 34.5105 24.235 13.4039 7.96378 86.7761 116.584 18.4736 7.38161
threshold=-0.5177568495273589 -0.25370076298713679 52.350000381469734 3.5000000000000004 82.549999237060561 0.044723279774189002 177.50000000000003 76.649997711181655 73.850002288818374 0.77330660820007335 10.500000000000002 70.450000762939467 63.649999618530281 67.649997711181655 0.62778672575950634 -0.631953865289688 10.500000000000002 0.60949614644050609 0.40221868455410009 8.5000000000000018 58.45000076293946 50.250000000000007 320.50000000000006 71.049999237060561 -0.25872918963432306 1.0000000180025095e-35 0.65233013033866893 8.5000000000000018 0.55907270312309276 0.43941035866737371
decision_type=2 2 2 2 2 2 2 2 2 2 2 2 2 2 2 2 2 2 2 2 2 2 2 2 2 2 2 2 2 2
left_child=1 2 24 4 6 -5 -4 8 9 11 -9 12 -8 -14 17 -16 -6 25 19 20 21 -19 -22 -24 -1 29 28 -28 -27 -2
right_child=14 -3 3 5 16 -7 7 10 -10 -11 -12 -13 13 -15 15 -17 -18 18 -20 -21 22 -23 23 -25 -26 26 27 -29 -30 -31
leaf_value=-4.3110098178011391 -6.6552799730072838 -6.6567000399369078 -0.44752004016574176 25.675786805718403 14.454511959284995 13.259537695178297 5.9094975786476933 8.9812347743016598 21.491582625692295 15.915036059860322 -1.9653195956653731 1.6222066264246457 17.470399387745346 7.8313866261958118 2.7260608486061617 -6.6567000399369078 20.583573507446211 -4.8523229459862725 -6.6567000399369078 -6.6567000399369078 -6.656700039936907 0.38037062647039477 -5.0573657975715989 -1.9653195956653731 -6.6567000399369061 -6.6567000399369078 0.38037062647041164 -6.6567000399369061 -4.7547890490160025 -6.2833806411885016
leaf_weight=0.042631375836208463 140.83843425835948 0.93646922253537812 0.048315559281036258 0.052578696864657104 0.042631375836208463 0.075315430643968284 0.07957856822758913 0.063947063754312694 0.042631375836208463 0.075315430643968284 0.042631375836208463 0.048315559281036258 0.049736605142243207 0.048315559281036258 0.042631375836208463 0.052578696864656105 0.044052421697415411 0.055420788587069891 0.97483746078796685 0.13499935681466013 0.071052293060347438 0.042631375836208463 0.062526017893105745 0.042631375836208463 0.05684183444827795 1.7805704640923057 0.042631375836208352 0.052578696864657104 0.052578696864656993 0.53573428967501868
leaf_count=30 99109 659 34 37 30 53 56 45 30 53 30 34 35 34 30 37 31 39 686 95 50 30 44 30 40 1253 30 37 37 377
internal_value=-6.55433 0.831978 9.45967 11.5668 10.082 18.364 8.78075 9.77053 11.3722 9.94016 4.60261 7.94854 9.6693 12.7207 -6.64358 -2.45546 17.5693 -6.64633 -6.15096 -4.9463 -4.10439 -2.57724 -4.95418 -3.80383 -5.6514 -6.65112 -6.44927 -3.50577 -6.60215 -6.65387
internal_weight=146.531 1.74931 0.812838 0.713365 0.585471 0.127894 0.498787 0.450472 0.343893 0.301262 0.106578 0.225946 0.177631 0.0980522 144.782 0.0952101 0.0866838 144.687 1.3841 0.409261 0.274262 0.0980522 0.17621 0.105157 0.0994732 143.303 1.92836 0.0952101 1.83315 141.374
internal_count=103115 1231 572 502 412 90 351 317 242 212 75 159 125 69 101884 67 61 101817 974 288 193 69 124 74 70 100843 1357 67 1290 99486
is_linear=0
shrinkage=1


Tree=15
num_leaves=31
num_cat=0
split_feature=246 715 109 70 728 775 768 678 771 770 770 718 775 773 768 768 770 706 771 55 3 3 482 29 773 768 299 775 768 539
split_gain=1450.16 1174.5 655.512 316.467 521.513 1059.71 1215.4 178.178 239.713 104.016 88.4054 38.72 141.889 112.197 157.579 586.873 73.3537 21.1107 76.6607 18.1484 271.525 8.9718 54.8938 8.96008 25.2953 64.4868 8.57044 102.623 1.10113 55.4555
threshold=0.27645322680473333 -0.68884143233299244 0.21995068341493609 -0.5177568495273589 0.35073047876358038 206.00000000000003 70.450000762939467 0.50294330716133129 11.500000000000002 41.094999313354499 25.904999732971195 1.0855357646942141 206.00000000000003 1.5000000000000002 60.049999237060554 64.850002288818374 26.605000495910648 0.36903432011604315 11.500000000000002 -0.66750645637512196 -0.10853651538491248 -0.38573257625102991 0.028596760705113414 -0.1370260491967201 1.5000000000000002 52.350000381469734 -0.22029516845941541 177.50000000000003 83.750000000000014 -0.42864644527435297
decision_type=2 2 2 2 2 2 2 2 2 2 2 2 2 2 2 2 2 2 2 2 2 2 2 2 2 2 2 2 2 2
left_child=3 2 -2 4 7 6 -6 9 -9 -1 -7 17 -13 -14 -15 -16 -17 19 -19 20 -5 22 23 24 25 -21 27 -23 -28 -30
right_child=1 -3 -4 11 5 10 -8 8 -10 -11 -12 12 13 14 15 16 -18 18 -20 21 -22 26 -24 -25 -26 -27 28 -29 29 -31
leaf_value=-8.2147325183083044 11.818420587702949 -8.214732518308308 45.637829594622971 6.3020450947432458 41.868150246718997 2.5557799042779568 -1.2587765787210801 14.044326488369883 -8.2147325183082973 2.5557799042779568 -8.2147325183083044 -8.214732518308308 -8.2147325183083044 -8.2147325183083026 25.173855991708965 2.9147969850307938 -8.2147325183083009 -8.214732518308308 1.6054405728733805 1.9030215756364317 -8.2147325183083026 -8.2147325183082902 -2.0316605720085015 -8.2147325183083026 -8.2147325183083062 -8.2147325183083009 -8.214732518308308 2.9147969850307938 -2.5556497199999813 -8.214732518308308
leaf_weight=0.26176608697279036 0.014975176600273699 0.019467729580354809 0.0092846094921696931 0.013777162472251803 0.011980141280218959 0.0092846094921696931 0.014376169536262751 0.0089851059601642191 0.010482623620191589 0.0092846094921696931 0.042529501544777304 0.30219906379352224 0.033244892052607611 0.01886872251634486 0.0089851059601642191 0.0089851059601642191 0.01737120485631749 0.036239927372661351 0.010183120088186115 0.0098836165561806411 0.19887034525164438 0.10632375386196002 0.016173190728295594 0.32286480750191771 0.060499713465105742 0.01737120485631749 28.399224408291023 0.0089851059601642191 0.017670708388322964 0.86316917923977499
leaf_count=874 50 65 31 46 40 31 48 30 35 31 142 1009 111 63 30 30 58 121 34 33 664 355 54 1078 202 58 94821 30 59 2882
internal_value=-8.11759 10.0804 24.7617 -8.1434 -5.23119 2.01932 18.3444 -7.1821 2.05868 -7.8458 -6.28476 -8.17863 -7.18818 -3.64095 -0.836039 3.10343 -4.42057 -8.19146 -6.06063 -8.19476 -7.27421 -8.20132 -7.74612 -7.9712 -7.07519 -4.54566 -8.20793 -7.3475 -8.21132 -8.1012
internal_weight=30.8833 0.0437275 0.0242598 30.8396 0.368689 0.0781704 0.0263563 0.290518 0.0194677 0.271051 0.0518141 30.4709 0.389654 0.087455 0.0542101 0.0353414 0.0263563 30.0812 0.046423 30.0348 0.212648 29.8222 0.426793 0.410619 0.0877545 0.0272548 29.3954 0.115309 29.2801 0.88084
internal_count=103115 146 81 102969 1231 261 88 970 65 905 173 101738 1301 292 181 118 88 100437 155 100282 710 99572 1425 1371 293 91 98147 385 97762 2941
is_linear=0
shrinkage=1


Tree=16
num_leaves=31
num_cat=0
split_feature=221 105 697 320 773 776 772 774 39 776 773 775 775 51 772 588 774 41 229 400 775 402 698 495 72 156 104 542 109 52
split_gain=6807.34 9022.14 1075.51 2467.15 800.892 1453.06 572.505 638.131 481.005 548.952 461.357 280.243 130.516 283.878 87.1987 77.0531 73.0923 23.9796 14.9379 85.0035 20.1315 8.86653 76.4903 5.66486 21.3592 5.06918 21.0974 2.53051 24.5257 0.856154
threshold=0.55013820528984081 -0.11846528202295302 -0.4530929028987884 -0.30910478532314295 1.5000000000000002 2.5000000000000004 4.5000000000000009 11.500000000000002 0.33561499416828161 3.5000000000000004 2.5000000000000004 235.50000000000003 427.50000000000006 0.42695210874080664 4.5000000000000009 0.65690672397613536 10.500000000000002 0.13747455924749377 -0.57448810338973988 -0.064608473330736146 577.50000000000011 -0.031805441714823239 0.25985379517078405 0.62546083331108104 -1.0000000180025095e-35 0.40649335086345678 0.018438080325722698 -0.26164509356021876 0.076272536069154753 0.95724472403526317
decision_type=2 2 2 2 2 2 2 2 2 2 2 2 2 2 2 2 2 2 2 2 2 2 2 2 2 2 2 2 2 2
left_child=2 12 3 10 5 -3 -7 -8 9 11 -1 16 -2 -14 -13 18 -6 -5 19 20 -4 23 -23 25 -25 27 -27 28 -20 -29
right_child=1 4 15 17 8 6 7 -9 -10 -11 -12 14 13 -15 -16 -17 -18 -19 21 -21 -22 22 -24 24 -26 26 -28 29 -30 -31
leaf_value=15.23101995900841 -6.8005182118185648 2.2262925665065154 -6.8005182118185648 -4.0924749783210448 3.7961727018671958 27.770246471127901 9.1291478675783573 25.696000590150799 14.659447034765225 16.04859657081618 2.8710647649581063 3.3546439137968793 -6.800518211818563 4.0316547221712238 -2.5246604747172769 -2.9318850211078225 8.6073139787705557 -6.8005182118185648 -4.0924749783210448 -1.8768032418230742 -4.6048074819557563 -2.5246604747172183 -6.8005182118185648 -6.8005182118185639 -4.0924749783210448 -4.1798312116596748 -6.8005182118185639 -6.8005182118185648 -6.8005182118185648 -6.714091300111197
leaf_weight=0.07262316532433033 0.73977156542241573 0.066468659788369022 0.50220765173435211 0.036927033215760185 0.056621450930833817 0.057852352038025856 0.062775956466794014 0.036927033215761185 0.065237758681178093 0.039388835430145264 0.051697846502065659 0.039388835430145264 0.070161363109946251 0.036927033215761185 0.070161363109946251 0.051697846502064659 0.07139226421713829 0.28556905686855316 0.036927033215760185 0.040619736537336304 0.045543340966105461 0.046774242073296501 0.39635015651583672 0.13786092400550842 0.036927033215760185 0.038157934322952225 0.15755534172058105 122.0623082946986 0.35449951887130737 1.157047040760516
leaf_count=59 601 54 408 30 46 47 51 30 53 32 42 32 57 30 57 42 58 232 30 33 37 38 322 112 30 31 128 99165 288 940
